<?xml version="1.0"?>
<MethodSetup Method="DL::DNN_CPU">
  <GeneralInfo>
    <Info name="TMVA Release" value="4.2.1 [262657]"/>
    <Info name="ROOT Release" value="6.27/01 [400129]"/>
    <Info name="Creator" value="neel"/>
    <Info name="Date" value="Fri Apr  8 18:50:35 2022"/>
    <Info name="Host" value="Linux neel-HP-Pavilion-15-Notebook-PC 5.13.0-39-generic #44~20.04.1-Ubuntu SMP Thu Mar 24 16:43:35 UTC 2022 x86_64 x86_64 x86_64 GNU/Linux"/>
    <Info name="Dir" value="/home/neel/Root/Notebooks"/>
    <Info name="Training events" value="14000"/>
    <Info name="TrainingTime" value="6.47801185e+00"/>
    <Info name="AnalysisType" value="Classification"/>
  </GeneralInfo>
  <Options>
    <Option name="V" modified="Yes">True</Option>
    <Option name="VerbosityLevel" modified="No">Verbose</Option>
    <Option name="VarTransform" modified="Yes">G</Option>
    <Option name="H" modified="Yes">False</Option>
    <Option name="CreateMVAPdfs" modified="No">False</Option>
    <Option name="IgnoreNegWeightsInTraining" modified="No">False</Option>
    <Option name="InputLayout" modified="Yes">1|1|7</Option>
    <Option name="BatchLayout" modified="Yes">1|32|7</Option>
    <Option name="Layout" modified="Yes">DENSE|64|TANH,DENSE|64|TANH,DENSE|64|TANH,DENSE|64|TANH,DENSE|1|LINEAR</Option>
    <Option name="ErrorStrategy" modified="Yes">CROSSENTROPY</Option>
    <Option name="WeightInitialization" modified="Yes">XAVIER</Option>
    <Option name="RandomSeed" modified="No">0</Option>
    <Option name="ValidationSize" modified="No">20%</Option>
    <Option name="Architecture" modified="No">CPU</Option>
    <Option name="TrainingStrategy" modified="Yes">Optimizer=ADAM,LearningRate=1e-3,Momentum=0.,Regularization=None,WeightDecay=1e-4,DropConfig=0.+0.+0.+0.,MaxEpochs=30,ConvergenceSteps=10,BatchSize=32,TestRepetitions=1</Option>
  </Options>
  <Variables NVar="7">
    <Variable VarIndex="0" Expression="m_jj" Label="m_jj" Title="m_jj" Unit="" Internal="m_jj" Type="F" Min="1.51058629e-01" Max="1.61319084e+01"/>
    <Variable VarIndex="1" Expression="m_jjj" Label="m_jjj" Title="m_jjj" Unit="" Internal="m_jjj" Type="F" Min="3.42466980e-01" Max="8.94014835e+00"/>
    <Variable VarIndex="2" Expression="m_lv" Label="m_lv" Title="m_lv" Unit="" Internal="m_lv" Type="F" Min="2.66787767e-01" Max="3.68225980e+00"/>
    <Variable VarIndex="3" Expression="m_jlv" Label="m_jlv" Title="m_jlv" Unit="" Internal="m_jlv" Type="F" Min="3.84410560e-01" Max="6.58312130e+00"/>
    <Variable VarIndex="4" Expression="m_bb" Label="m_bb" Title="m_bb" Unit="" Internal="m_bb" Type="F" Min="8.09864625e-02" Max="8.25508308e+00"/>
    <Variable VarIndex="5" Expression="m_wbb" Label="m_wbb" Title="m_wbb" Unit="" Internal="m_wbb" Type="F" Min="3.85025799e-01" Max="6.40131283e+00"/>
    <Variable VarIndex="6" Expression="m_wwbb" Label="m_wwbb" Title="m_wwbb" Unit="" Internal="m_wwbb" Type="F" Min="4.32279825e-01" Max="4.53500271e+00"/>
  </Variables>
  <Spectators NSpec="0"/>
  <Classes NClass="2">
    <Class Name="Signal" Index="0"/>
    <Class Name="Background" Index="1"/>
  </Classes>
  <Transformations NTransformations="1">
    <Transform Name="Gauss" FlatOrGauss="Gauss">
      <Selection>
        <Input NInputs="7">
          <Input Type="Variable" Label="m_jj" Expression="m_jj"/>
          <Input Type="Variable" Label="m_jjj" Expression="m_jjj"/>
          <Input Type="Variable" Label="m_lv" Expression="m_lv"/>
          <Input Type="Variable" Label="m_jlv" Expression="m_jlv"/>
          <Input Type="Variable" Label="m_bb" Expression="m_bb"/>
          <Input Type="Variable" Label="m_wbb" Expression="m_wbb"/>
          <Input Type="Variable" Label="m_wwbb" Expression="m_wwbb"/>
        </Input>
        <Output NOutputs="7">
          <Output Type="Variable" Label="m_jj" Expression="m_jj"/>
          <Output Type="Variable" Label="m_jjj" Expression="m_jjj"/>
          <Output Type="Variable" Label="m_lv" Expression="m_lv"/>
          <Output Type="Variable" Label="m_jlv" Expression="m_jlv"/>
          <Output Type="Variable" Label="m_bb" Expression="m_bb"/>
          <Output Type="Variable" Label="m_wbb" Expression="m_wbb"/>
          <Output Type="Variable" Label="m_wwbb" Expression="m_wwbb"/>
        </Output>
      </Selection>
      <Variable VarIndex="0">
        <CumulativePDF_cls0>
          <PDF Name="GaussTransform var0 cls0" MinNSmooth="0" MaxNSmooth="0" InterpolMethod="1" KDE_type="0" KDE_iter="1" KDE_border="1" KDE_finefactor="0.0000000000000000e+00">
            <Histogram Name="Cumulative_Var0_cls0_original" NBins="701" XMin="1.5095862746238708e-01" XMax="1.3098125457763672e+01" HasEquidistantBins="0">
              1.03479042e-03 2.31935782e-03 3.73773417e-03 5.17395185e-03 6.60124887e-03 8.02854635e-03 9.45584290e-03 1.08831404e-02 1.23104369e-02 1.37377344e-02 1.51650310e-02 1.65923275e-02 1.80196259e-02 1.94469225e-02 2.08742190e-02 2.23015174e-02 2.37288140e-02 2.51561105e-02 2.65834071e-02 2.80107055e-02 2.94380020e-02 3.08652986e-02 3.22925970e-02 3.37198935e-02 3.51471901e-02 3.65744866e-02 3.80017832e-02 3.94290797e-02 4.08563800e-02 4.22836766e-02 4.37109731e-02 4.51382697e-02 4.65655662e-02 4.79928628e-02 4.94201593e-02 5.08474559e-02 5.22747561e-02 5.37020527e-02 5.51293492e-02 5.65566458e-02 5.79839423e-02 5.94112389e-02 6.08385354e-02 6.22658357e-02 6.36931285e-02 6.51204288e-02 6.65477216e-02 6.79750219e-02 6.94023222e-02 7.08296150e-02 7.22569153e-02 7.36842081e-02 7.51115084e-02 7.65388012e-02 7.79661015e-02 7.93934017e-02 8.08206946e-02 8.22479948e-02 8.36752877e-02 8.51025879e-02 8.65298808e-02 8.79571810e-02 8.93844813e-02 9.08117741e-02 9.22390744e-02 9.36663672e-02 9.50936675e-02 9.65209603e-02 9.79482606e-02 9.93755609e-02 1.00802854e-01 1.02230154e-01 1.03657447e-01 1.05084747e-01 1.06512040e-01 1.07939340e-01 1.09366640e-01 1.10793933e-01 1.12221234e-01 1.13648526e-01 1.15075827e-01 1.16503119e-01 1.17930420e-01 1.19357720e-01 1.20785013e-01 1.22212313e-01 1.23639606e-01 1.25066906e-01 1.26494199e-01 1.27921492e-01 1.29348800e-01 1.30776092e-01 1.32203385e-01 1.33630693e-01 1.35057986e-01 1.36485279e-01 1.37912571e-01 1.39339879e-01 1.40767172e-01 1.42194465e-01 1.43621773e-01 1.45049065e-01 1.46476358e-01 1.47903651e-01 1.49330959e-01 1.50758252e-01 1.52185544e-01 1.53612852e-01 1.55040145e-01 1.56467438e-01 1.57894731e-01 1.59322038e-01 1.60749331e-01 1.62176624e-01 1.63603932e-01 1.65031224e-01 1.66458517e-01 1.67885810e-01 1.69313118e-01 1.70740411e-01 1.72167704e-01 1.73595011e-01 1.75022304e-01 1.76449597e-01 1.77876890e-01 1.79304197e-01 1.80731490e-01 1.82158783e-01 1.83586091e-01 1.85013384e-01 1.86440676e-01 1.87867969e-01 1.89295277e-01 1.90722570e-01 1.92149863e-01 1.93577170e-01 1.95004463e-01 1.96431756e-01 1.97859049e-01 1.99286357e-01 2.00713649e-01 2.02140942e-01 2.03568250e-01 2.04995543e-01 2.06422836e-01 2.07850128e-01 2.09277436e-01 2.10704729e-01 2.12132022e-01 2.13559315e-01 2.14986622e-01 2.16413915e-01 2.17841208e-01 2.19268516e-01 2.20695809e-01 2.22123101e-01 2.23550394e-01 2.24977702e-01 2.26404995e-01 2.27832288e-01 2.29259595e-01 2.30686888e-01 2.32114181e-01 2.33541474e-01 2.34968781e-01 2.36396074e-01 2.37823367e-01 2.39250675e-01 2.40677968e-01 2.42105260e-01 2.43532553e-01 2.44959861e-01 2.46387154e-01 2.47814447e-01 2.49241754e-01 2.50669032e-01 2.52096355e-01 2.53523648e-01 2.54950941e-01 2.56378233e-01 2.57805526e-01 2.59232819e-01 2.60660112e-01 2.62087435e-01 2.63514727e-01 2.64942020e-01 2.66369313e-01 2.67796606e-01 2.69223899e-01 2.70651191e-01 2.72078514e-01 2.73505807e-01 2.74933100e-01 2.76360393e-01 2.77787685e-01 2.79214978e-01 2.80642271e-01 2.82069594e-01 2.83496886e-01 2.84924179e-01 2.86351472e-01 2.87778765e-01 2.89206058e-01 2.90633351e-01 2.92060673e-01 2.93487966e-01 2.94915259e-01 2.96342552e-01 2.97769845e-01 2.99197137e-01 3.00624430e-01 3.02051753e-01 3.03479046e-01 3.04906338e-01 3.06333631e-01 3.07760924e-01 3.09188217e-01 3.10615510e-01 3.12042832e-01 3.13470125e-01 3.14897418e-01 3.16324711e-01 3.17752004e-01 3.19179296e-01 3.20606589e-01 3.22033912e-01 3.23461205e-01 3.24888498e-01 3.26315790e-01 3.27743083e-01 3.29170376e-01 3.30597669e-01 3.32024992e-01 3.33452284e-01 3.34879577e-01 3.36306870e-01 3.37734163e-01 3.39161456e-01 3.40588748e-01 3.42016071e-01 3.43443364e-01 3.44870657e-01 3.46297950e-01 3.47725242e-01 3.49152535e-01 3.50579828e-01 3.52007151e-01 3.53434443e-01 3.54861736e-01 3.56289029e-01 3.57716322e-01 3.59143615e-01 3.60570908e-01 3.61998230e-01 3.63425523e-01 3.64852816e-01 3.66280109e-01 3.67707402e-01 3.69134694e-01 3.70561987e-01 3.71989310e-01 3.73416603e-01 3.74843895e-01 3.76271188e-01 3.77698481e-01 3.79125774e-01 3.80553067e-01 3.81980389e-01 3.83407682e-01 3.84834975e-01 3.86262268e-01 3.87689561e-01 3.89116853e-01 3.90544146e-01 3.91971469e-01 3.93398762e-01 3.94826055e-01 3.96253347e-01 3.97680640e-01 3.99107933e-01 4.00535226e-01 4.01962519e-01 4.03389841e-01 4.04817134e-01 4.06244427e-01 4.07671720e-01 4.09099013e-01 4.10526305e-01 4.11953598e-01 4.13380921e-01 4.14808214e-01 4.16235507e-01 4.17662799e-01 4.19090092e-01 4.20517385e-01 4.21944678e-01 4.23372000e-01 4.24799293e-01 4.26226586e-01 4.27653879e-01 4.29081172e-01 4.30508465e-01 4.31935757e-01 4.33363080e-01 4.34790373e-01 4.36217666e-01 4.37644958e-01 4.39072251e-01 4.40499544e-01 4.41926837e-01 4.43354160e-01 4.44781452e-01 4.46208745e-01 4.47636038e-01 4.49063331e-01 4.50490624e-01 4.51917917e-01 4.53345239e-01 4.54772532e-01 4.56199825e-01 4.57627118e-01 4.59054410e-01 4.60481703e-01 4.61908996e-01 4.63336319e-01 4.64763612e-01 4.66190904e-01 4.67618197e-01 4.69045490e-01 4.70472783e-01 4.71900076e-01 4.73327398e-01 4.74754691e-01 4.76181984e-01 4.77609277e-01 4.79036570e-01 4.80463862e-01 4.81891155e-01 4.83318478e-01 4.84745771e-01 4.86173064e-01 4.87600356e-01 4.89027649e-01 4.90454942e-01 4.91882235e-01 4.93309557e-01 4.94736850e-01 4.96164143e-01 4.97591436e-01 4.99018729e-01 5.00446022e-01 5.01873314e-01 5.03300607e-01 5.04727900e-01 5.06155193e-01 5.07582545e-01 5.09009838e-01 5.10437131e-01 5.11864424e-01 5.13291717e-01 5.14719009e-01 5.16146302e-01 5.17573595e-01 5.19000888e-01 5.20428181e-01 5.21855474e-01 5.23282766e-01 5.24710059e-01 5.26137352e-01 5.27564645e-01 5.28991997e-01 5.30419290e-01 5.31846583e-01 5.33273876e-01 5.34701169e-01 5.36128461e-01 5.37555754e-01 5.38983047e-01 5.40410340e-01 5.41837633e-01 5.43264925e-01 5.44692218e-01 5.46119511e-01 5.47546804e-01 5.48974156e-01 5.50401449e-01 5.51828742e-01 5.53256035e-01 5.54683328e-01 5.56110620e-01 5.57537913e-01 5.58965206e-01 5.60392499e-01 5.61819792e-01 5.63247085e-01 5.64674377e-01 5.66101670e-01 5.67528963e-01 5.68956316e-01 5.70383608e-01 5.71810901e-01 5.73238194e-01 5.74665487e-01 5.76092780e-01 5.77520072e-01 5.78947365e-01 5.80374658e-01 5.81801951e-01 5.83229244e-01 5.84656537e-01 5.86083829e-01 5.87511122e-01 5.88938475e-01 5.90365767e-01 5.91793060e-01 5.93220353e-01 5.94647646e-01 5.96074939e-01 5.97502232e-01 5.98929524e-01 6.00356817e-01 6.01784110e-01 6.03211403e-01 6.04638696e-01 6.06065989e-01 6.07493281e-01 6.08920634e-01 6.10347927e-01 6.11775219e-01 6.13202512e-01 6.14629805e-01 6.16057098e-01 6.17484391e-01 6.18911684e-01 6.20338976e-01 6.21766269e-01 6.23193562e-01 6.24620855e-01 6.26048148e-01 6.27475441e-01 6.28902793e-01 6.30330086e-01 6.31757379e-01 6.33184671e-01 6.34611964e-01 6.36039257e-01 6.37466550e-01 6.38893843e-01 6.40321136e-01 6.41748428e-01 6.43175721e-01 6.44603014e-01 6.46030307e-01 6.47457600e-01 6.48884952e-01 6.50312245e-01 6.51739538e-01 6.53166831e-01 6.54594123e-01 6.56021416e-01 6.57448709e-01 6.58876002e-01 6.60303295e-01 6.61730587e-01 6.63157880e-01 6.64585173e-01 6.66012466e-01 6.67439759e-01 6.68867111e-01 6.70294404e-01 6.71721697e-01 6.73148990e-01 6.74576283e-01 6.76003575e-01 6.77430868e-01 6.78858161e-01 6.80285454e-01 6.81712747e-01 6.83140039e-01 6.84567332e-01 6.85994625e-01 6.87421918e-01 6.88849270e-01 6.90276563e-01 6.91703856e-01 6.93131149e-01 6.94558442e-01 6.95985734e-01 6.97413027e-01 6.98840320e-01 7.00267613e-01 7.01694906e-01 7.03122199e-01 7.04549491e-01 7.05976784e-01 7.07404077e-01 7.08831429e-01 7.10258722e-01 7.11686015e-01 7.13113308e-01 7.14540601e-01 7.15967894e-01 7.17395186e-01 7.18822479e-01 7.20249772e-01 7.21677065e-01 7.23104358e-01 7.24531651e-01 7.25958943e-01 7.27386236e-01 7.28813589e-01 7.30240881e-01 7.31668174e-01 7.33095467e-01 7.34522760e-01 7.35950053e-01 7.37377346e-01 7.38804638e-01 7.40231931e-01 7.41659224e-01 7.43086517e-01 7.44513810e-01 7.45941103e-01 7.47368395e-01 7.48795748e-01 7.50223041e-01 7.51650333e-01 7.53077626e-01 7.54504919e-01 7.55932212e-01 7.57359505e-01 7.58786798e-01 7.60214090e-01 7.61641383e-01 7.63068676e-01 7.64495969e-01 7.65923262e-01 7.67350554e-01 7.68777847e-01 7.70205200e-01 7.71632493e-01 7.73059785e-01 7.74487078e-01 7.75914371e-01 7.77341664e-01 7.78768957e-01 7.80196249e-01 7.81623542e-01 7.83050835e-01 7.84478128e-01 7.85905421e-01 7.87332714e-01 7.88760006e-01 7.90187359e-01 7.91614652e-01 7.93041945e-01 7.94469237e-01 7.95896530e-01 7.97323823e-01 7.98751116e-01 8.00178409e-01 8.01605701e-01 8.03032994e-01 8.04460287e-01 8.05887580e-01 8.07314873e-01 8.08742166e-01 8.10169518e-01 8.11596811e-01 8.13024104e-01 8.14451396e-01 8.15878689e-01 8.17305982e-01 8.18733275e-01 8.20160568e-01 8.21587861e-01 8.23015153e-01 8.24442446e-01 8.25869739e-01 8.27297032e-01 8.28724325e-01 8.30151677e-01 8.31578970e-01 8.33006263e-01 8.34433556e-01 8.35860848e-01 8.37288141e-01 8.38715434e-01 8.40142727e-01 8.41570020e-01 8.42997313e-01 8.44424605e-01 8.45851898e-01 8.47279191e-01 8.48706484e-01 8.50133836e-01 8.51561129e-01 8.52988422e-01 8.54415715e-01 8.55843008e-01 8.57270300e-01 8.58697593e-01 8.60124886e-01 8.61552179e-01 8.62979472e-01 8.64406765e-01 8.65834057e-01 8.67261350e-01 8.68688643e-01 8.70115995e-01 8.71543288e-01 8.72970581e-01 8.74397874e-01 8.75825167e-01 8.77252460e-01 8.78679752e-01 8.80107045e-01 8.81534338e-01 8.82961631e-01 8.84388924e-01 8.85816216e-01 8.87243509e-01 8.88670802e-01 8.90098155e-01 8.91525447e-01 8.92952740e-01 8.94380033e-01 8.95807326e-01 8.97234619e-01 8.98661911e-01 9.00089204e-01 9.01516497e-01 9.02943790e-01 9.04371083e-01 9.05798376e-01 9.07225668e-01 9.08652961e-01 9.10080314e-01 9.11507607e-01 9.12934899e-01 9.14362192e-01 9.15789485e-01 9.17216778e-01 9.18644071e-01 9.20071363e-01 9.21498656e-01 9.22925949e-01 9.24353242e-01 9.25780535e-01 9.27207828e-01 9.28635120e-01 9.30062473e-01 9.31489766e-01 9.32917058e-01 9.34344351e-01 9.35771644e-01 9.37198937e-01 9.38626230e-01 9.40053523e-01 9.41480815e-01 9.42908108e-01 9.44335401e-01 9.45762694e-01 9.47189987e-01 9.48617280e-01 9.50044632e-01 9.51471925e-01 9.52899218e-01 9.54326510e-01 9.55753803e-01 9.57181096e-01 9.58608389e-01 9.60035682e-01 9.61462975e-01 9.62890267e-01 9.64317560e-01 9.65744853e-01 9.67172146e-01 9.68599439e-01 9.70026791e-01 9.71454084e-01 9.72881377e-01 9.74308670e-01 9.75735962e-01 9.77163255e-01 9.78590548e-01 9.80017841e-01 9.81445134e-01 9.82872427e-01 9.84299719e-01 9.85727012e-01 9.87154305e-01 9.88581598e-01 9.90008950e-01 9.91436243e-01 9.92863536e-01 9.94290829e-01 9.95718122e-01 9.97145414e-01 9.98572707e-01 1.00000000e+00 
            </Histogram>
            <HistogramBinning NBins="701">
              1.50958627e-01 1.51058629e-01 2.17474610e-01 2.66232967e-01 2.87752807e-01 3.02219898e-01 3.11954647e-01 3.23110282e-01 3.42073560e-01 3.63070041e-01 3.75184625e-01 3.83060724e-01 3.95037383e-01 4.02439058e-01 4.11700666e-01 4.19044256e-01 4.28151846e-01 4.37985867e-01 4.42364603e-01 4.49591875e-01 4.54418808e-01 4.63824034e-01 4.71126556e-01 4.74000126e-01 4.81530696e-01 4.84511495e-01 4.90430832e-01 4.96825635e-01 5.01165628e-01 5.02513468e-01 5.06593525e-01 5.14268935e-01 5.20710528e-01 5.24819016e-01 5.26413143e-01 5.31334698e-01 5.34914136e-01 5.43559968e-01 5.47714055e-01 5.53303838e-01 5.58271050e-01 5.62005520e-01 5.65209806e-01 5.69723129e-01 5.71727812e-01 5.75461149e-01 5.78279972e-01 5.80481887e-01 5.85898340e-01 5.90130031e-01 5.92967153e-01 5.97703934e-01 6.02860451e-01 6.03845656e-01 6.05950654e-01 6.10670388e-01 6.12273693e-01 6.15870178e-01 6.17532730e-01 6.21260405e-01 6.25276566e-01 6.29325807e-01 6.32007778e-01 6.34313464e-01 6.37356997e-01 6.40939772e-01 6.42489493e-01 6.45123601e-01 6.46642506e-01 6.48118019e-01 6.50886714e-01 6.53220892e-01 6.55798018e-01 6.57538116e-01 6.59808457e-01 6.60986364e-01 6.63539529e-01 6.66399419e-01 6.68805480e-01 6.71428204e-01 6.73861563e-01 6.75439775e-01 6.76454663e-01 6.78639472e-01 6.81814075e-01 6.84017181e-01 6.85076475e-01 6.86199665e-01 6.87471151e-01 6.89239740e-01 6.91591084e-01 6.93246782e-01 6.95544481e-01 6.97951674e-01 6.99339449e-01 7.00991750e-01 7.02354372e-01 7.03666866e-01 7.04658985e-01 7.05993116e-01 7.07149386e-01 7.09085643e-01 7.11133599e-01 7.12862313e-01 7.14286566e-01 7.15652645e-01 7.17042685e-01 7.18295872e-01 7.20259488e-01 7.21459091e-01 7.22817183e-01 7.23918736e-01 7.24900544e-01 7.26150334e-01 7.27170885e-01 7.28331745e-01 7.28888154e-01 7.29904175e-01 7.30811954e-01 7.31825650e-01 7.32815385e-01 7.34191716e-01 7.35758543e-01 7.36697018e-01 7.38052785e-01 7.39405215e-01 7.40328848e-01 7.41835237e-01 7.43026853e-01 7.44158030e-01 7.44720221e-01 7.45766938e-01 7.46647298e-01 7.47398794e-01 7.48809278e-01 7.50099063e-01 7.51232445e-01 7.52664745e-01 7.53563225e-01 7.55255461e-01 7.56373048e-01 7.58156419e-01 7.59232819e-01 7.60138214e-01 7.61512399e-01 7.62695968e-01 7.64257073e-01 7.64782727e-01 7.65627742e-01 7.67347276e-01 7.68227637e-01 7.68618762e-01 7.69874215e-01 7.71700919e-01 7.72896051e-01 7.73568809e-01 7.74167418e-01 7.75617957e-01 7.76281595e-01 7.77730882e-01 7.78921366e-01 7.80233920e-01 7.81643271e-01 7.82397032e-01 7.83441544e-01 7.84334421e-01 7.85178185e-01 7.86345899e-01 7.87163496e-01 7.87990272e-01 7.88741648e-01 7.89766848e-01 7.91245818e-01 7.91779459e-01 7.93004155e-01 7.93930113e-01 7.95008838e-01 7.95851529e-01 7.96945095e-01 7.97426283e-01 7.98260927e-01 7.99249589e-01 8.00132215e-01 8.01069498e-01 8.01337540e-01 8.02147150e-01 8.02803934e-01 8.03356946e-01 8.04472208e-01 8.05324018e-01 8.06221485e-01 8.06806445e-01 8.07682216e-01 8.08425665e-01 8.09058487e-01 8.10059786e-01 8.11184049e-01 8.12036991e-01 8.13121438e-01 8.13750923e-01 8.14532042e-01 8.15085053e-01 8.15399826e-01 8.16582322e-01 8.17072630e-01 8.17393064e-01 8.17906141e-01 8.18863988e-01 8.19711268e-01 8.20429623e-01 8.21091115e-01 8.21891546e-01 8.22436631e-01 8.23201776e-01 8.23905289e-01 8.24465215e-01 8.25100422e-01 8.25678527e-01 8.26106131e-01 8.26662540e-01 8.27466488e-01 8.28055978e-01 8.28690052e-01 8.29159856e-01 8.29822361e-01 8.30384493e-01 8.31003785e-01 8.31420004e-01 8.32159996e-01 8.32748413e-01 8.33318532e-01 8.34087074e-01 8.34691465e-01 8.35450947e-01 8.35934401e-01 8.36501122e-01 8.36903691e-01 8.37356389e-01 8.38069081e-01 8.38681400e-01 8.39087307e-01 8.39805782e-01 8.40554893e-01 8.40843499e-01 8.41321170e-01 8.41767073e-01 8.42271090e-01 8.42803657e-01 8.43141198e-01 8.44173193e-01 8.44719350e-01 8.45281541e-01 8.46240520e-01 8.47038746e-01 8.47655654e-01 8.48409355e-01 8.49026263e-01 8.49449337e-01 8.49840403e-01 8.50520074e-01 8.50855350e-01 8.51374209e-01 8.51699114e-01 8.52240801e-01 8.52588594e-01 8.53351414e-01 8.53875995e-01 8.54294479e-01 8.54600132e-01 8.55156541e-01 8.55734646e-01 8.56188536e-01 8.56817961e-01 8.57342541e-01 8.58047247e-01 8.58801007e-01 8.59429300e-01 8.60256076e-01 8.60666513e-01 8.61096442e-01 8.61695111e-01 8.62513840e-01 8.63174081e-01 8.63818288e-01 8.64240229e-01 8.64852607e-01 8.65269959e-01 8.65558445e-01 8.65965486e-01 8.66787732e-01 8.67240369e-01 8.67803693e-01 8.68149221e-01 8.68972480e-01 8.69622469e-01 8.70144725e-01 8.70567799e-01 8.71602058e-01 8.72393489e-01 8.73093545e-01 8.73423100e-01 8.73920262e-01 8.74422014e-01 8.75016093e-01 8.75390112e-01 8.75869036e-01 8.76386762e-01 8.76947820e-01 8.77498627e-01 8.77876043e-01 8.78336668e-01 8.78801942e-01 8.79421115e-01 8.79944503e-01 8.80495250e-01 8.80852222e-01 8.81503344e-01 8.82123649e-01 8.82552445e-01 8.82924199e-01 8.83202434e-01 8.83777142e-01 8.84236634e-01 8.84888887e-01 8.85314226e-01 8.85999560e-01 8.86591375e-01 8.87137592e-01 8.87529910e-01 8.88102233e-01 8.88609707e-01 8.89081776e-01 8.89520824e-01 8.90070438e-01 8.90303075e-01 8.90914321e-01 8.91478717e-01 8.92226756e-01 8.92686307e-01 8.93071771e-01 8.93498242e-01 8.93941760e-01 8.94482255e-01 8.94978344e-01 8.95361483e-01 8.95922542e-01 8.96691084e-01 8.97136927e-01 8.97647798e-01 8.98084521e-01 8.98630738e-01 8.99321735e-01 8.99773359e-01 9.00354862e-01 9.00817871e-01 9.01166797e-01 9.01839554e-01 9.02471244e-01 9.02970731e-01 9.03472424e-01 9.04042602e-01 9.05082583e-01 9.05572951e-01 9.05928671e-01 9.06245708e-01 9.06618536e-01 9.07086074e-01 9.07872915e-01 9.08204734e-01 9.08636928e-01 9.09152329e-01 9.09700811e-01 9.10277784e-01 9.10587966e-01 9.10830855e-01 9.11136508e-01 9.11387324e-01 9.11654115e-01 9.12052155e-01 9.12499130e-01 9.13035035e-01 9.13816214e-01 9.14567590e-01 9.14873242e-01 9.15486753e-01 9.15974796e-01 9.16362464e-01 9.16908681e-01 9.17661250e-01 9.18078601e-01 9.18489158e-01 9.18834686e-01 9.19287384e-01 9.19907689e-01 9.20401454e-01 9.20829058e-01 9.21244144e-01 9.21813190e-01 9.22113061e-01 9.22370791e-01 9.22760785e-01 9.23337758e-01 9.23956931e-01 9.24288750e-01 9.24606860e-01 9.25006032e-01 9.25458670e-01 9.25660551e-01 9.26053941e-01 9.27041471e-01 9.27336812e-01 9.27853346e-01 9.28259313e-01 9.28922951e-01 9.29234266e-01 9.29772496e-01 9.30284500e-01 9.30844426e-01 9.31856990e-01 9.32445347e-01 9.32851315e-01 9.33525264e-01 9.34077084e-01 9.34615374e-01 9.34925497e-01 9.35446620e-01 9.35870826e-01 9.36394215e-01 9.36940491e-01 9.37411427e-01 9.37753499e-01 9.38229024e-01 9.38743234e-01 9.39259887e-01 9.39735293e-01 9.40371633e-01 9.41231430e-01 9.41718340e-01 9.42614615e-01 9.43042219e-01 9.43636298e-01 9.44219053e-01 9.45306838e-01 9.46009278e-01 9.46547568e-01 9.47535038e-01 9.48628545e-01 9.49293375e-01 9.49747264e-01 9.50362921e-01 9.50955927e-01 9.51670885e-01 9.52456594e-01 9.53055263e-01 9.53617394e-01 9.54014301e-01 9.54757750e-01 9.56326783e-01 9.57456827e-01 9.58104491e-01 9.58573163e-01 9.59391892e-01 9.60008800e-01 9.60677028e-01 9.61065948e-01 9.61945057e-01 9.62843657e-01 9.63824332e-01 9.64364827e-01 9.65218902e-01 9.65610027e-01 9.66479003e-01 9.67239499e-01 9.68085647e-01 9.69163239e-01 9.70245421e-01 9.71042454e-01 9.71829295e-01 9.72642303e-01 9.73516881e-01 9.74132657e-01 9.75065470e-01 9.75739360e-01 9.76827204e-01 9.77698386e-01 9.78479564e-01 9.79594767e-01 9.80792046e-01 9.82185483e-01 9.83136594e-01 9.84532297e-01 9.85728443e-01 9.86580253e-01 9.87522185e-01 9.88212049e-01 9.89407063e-01 9.90303338e-01 9.92009282e-01 9.92843926e-01 9.94147360e-01 9.95675325e-01 9.96706128e-01 9.97820258e-01 9.98333395e-01 9.99144137e-01 1.00012255e+00 1.00116932e+00 1.00210094e+00 1.00308168e+00 1.00398016e+00 1.00519001e+00 1.00618207e+00 1.00735664e+00 1.00800776e+00 1.00899637e+00 1.01019835e+00 1.01149249e+00 1.01273429e+00 1.01342762e+00 1.01499438e+00 1.01630580e+00 1.01798773e+00 1.01983845e+00 1.02133334e+00 1.02301991e+00 1.02453196e+00 1.02609074e+00 1.02742147e+00 1.02882409e+00 1.03048658e+00 1.03179109e+00 1.03291202e+00 1.03423023e+00 1.03583467e+00 1.03699327e+00 1.03886557e+00 1.04092610e+00 1.04323757e+00 1.04577243e+00 1.04707575e+00 1.04822290e+00 1.05037236e+00 1.05250478e+00 1.05578315e+00 1.05703866e+00 1.06065798e+00 1.06134439e+00 1.06323385e+00 1.06558061e+00 1.06783509e+00 1.07040417e+00 1.07189000e+00 1.07427430e+00 1.07773292e+00 1.08252108e+00 1.08484387e+00 1.08837306e+00 1.09092164e+00 1.09340191e+00 1.09675658e+00 1.09839869e+00 1.10051858e+00 1.10209787e+00 1.10452318e+00 1.10659182e+00 1.10919619e+00 1.11150527e+00 1.11335599e+00 1.11733007e+00 1.11932898e+00 1.12273276e+00 1.12582529e+00 1.12863159e+00 1.13128281e+00 1.13541532e+00 1.13968468e+00 1.14503837e+00 1.14808297e+00 1.15127575e+00 1.15338540e+00 1.15655541e+00 1.16117370e+00 1.16717172e+00 1.16911018e+00 1.17204070e+00 1.17683005e+00 1.18006849e+00 1.18392277e+00 1.18898571e+00 1.19138026e+00 1.19458461e+00 1.19724154e+00 1.20154047e+00 1.20347905e+00 1.20696831e+00 1.21123314e+00 1.21595395e+00 1.21903276e+00 1.22256768e+00 1.22930694e+00 1.23436987e+00 1.23930740e+00 1.24335551e+00 1.24784827e+00 1.26303720e+00 1.26635551e+00 1.27444029e+00 1.28067768e+00 1.28452063e+00 1.29277635e+00 1.30309618e+00 1.31169403e+00 1.31766927e+00 1.32323396e+00 1.33373618e+00 1.33900440e+00 1.34494531e+00 1.35008824e+00 1.35593796e+00 1.36173069e+00 1.37281442e+00 1.37683964e+00 1.38874459e+00 1.39820898e+00 1.40684116e+00 1.41695571e+00 1.42648864e+00 1.43837070e+00 1.44528091e+00 1.46481431e+00 1.47439301e+00 1.48470128e+00 1.49481583e+00 1.50605917e+00 1.51645875e+00 1.52624261e+00 1.53908241e+00 1.55315387e+00 1.56432879e+00 1.57551527e+00 1.59106898e+00 1.60612118e+00 1.62279236e+00 1.63088858e+00 1.63858569e+00 1.64974916e+00 1.66335309e+00 1.67518938e+00 1.68979681e+00 1.70310402e+00 1.71604669e+00 1.72828209e+00 1.74027812e+00 1.75681257e+00 1.77392840e+00 1.80557203e+00 1.82918775e+00 1.85005534e+00 1.87197208e+00 1.88992047e+00 1.91201949e+00 1.92739093e+00 1.94643402e+00 1.96614993e+00 1.97787225e+00 2.00107741e+00 2.01888919e+00 2.04551506e+00 2.06862926e+00 2.09507298e+00 2.12490344e+00 2.15980816e+00 2.19915986e+00 2.22905898e+00 2.25999546e+00 2.30150247e+00 2.34867692e+00 2.37932825e+00 2.42051625e+00 2.44269514e+00 2.48081565e+00 2.53147936e+00 2.58272481e+00 2.61902070e+00 2.67975354e+00 2.73105574e+00 2.78154850e+00 2.86464262e+00 2.96293712e+00 3.05483437e+00 3.15633297e+00 3.26356721e+00 3.43558264e+00 3.51413798e+00 3.72752357e+00 4.05943251e+00 4.31734705e+00 4.59716654e+00 5.03646946e+00 5.76301575e+00 7.87591171e+00 1.30981255e+01 
            </HistogramBinning>
          </PDF>
        </CumulativePDF_cls0>
        <CumulativePDF_cls1>
          <PDF Name="GaussTransform var0 cls1" MinNSmooth="0" MaxNSmooth="0" InterpolMethod="1" KDE_type="0" KDE_iter="1" KDE_border="1" KDE_finefactor="0.0000000000000000e+00">
            <Histogram Name="Cumulative_Var0_cls1_original" NBins="701" XMin="1.7214095592498779e-01" XMax="1.6131908416748047e+01" HasEquidistantBins="0">
              1.03479042e-03 2.31935782e-03 3.73773417e-03 5.17395185e-03 6.60124887e-03 8.02854635e-03 9.45584290e-03 1.08831404e-02 1.23104369e-02 1.37377344e-02 1.51650310e-02 1.65923275e-02 1.80196259e-02 1.94469225e-02 2.08742190e-02 2.23015174e-02 2.37288140e-02 2.51561105e-02 2.65834071e-02 2.80107055e-02 2.94380020e-02 3.08652986e-02 3.22925970e-02 3.37198935e-02 3.51471901e-02 3.65744866e-02 3.80017832e-02 3.94290797e-02 4.08563800e-02 4.22836766e-02 4.37109731e-02 4.51382697e-02 4.65655662e-02 4.79928628e-02 4.94201593e-02 5.08474559e-02 5.22747561e-02 5.37020527e-02 5.51293492e-02 5.65566458e-02 5.79839423e-02 5.94112389e-02 6.08385354e-02 6.22658357e-02 6.36931285e-02 6.51204288e-02 6.65477216e-02 6.79750219e-02 6.94023222e-02 7.08296150e-02 7.22569153e-02 7.36842081e-02 7.51115084e-02 7.65388012e-02 7.79661015e-02 7.93934017e-02 8.08206946e-02 8.22479948e-02 8.36752877e-02 8.51025879e-02 8.65298808e-02 8.79571810e-02 8.93844813e-02 9.08117741e-02 9.22390744e-02 9.36663672e-02 9.50936675e-02 9.65209603e-02 9.79482606e-02 9.93755609e-02 1.00802854e-01 1.02230154e-01 1.03657447e-01 1.05084747e-01 1.06512040e-01 1.07939340e-01 1.09366640e-01 1.10793933e-01 1.12221234e-01 1.13648526e-01 1.15075827e-01 1.16503119e-01 1.17930420e-01 1.19357720e-01 1.20785013e-01 1.22212313e-01 1.23639606e-01 1.25066906e-01 1.26494199e-01 1.27921492e-01 1.29348800e-01 1.30776092e-01 1.32203385e-01 1.33630693e-01 1.35057986e-01 1.36485279e-01 1.37912571e-01 1.39339879e-01 1.40767172e-01 1.42194465e-01 1.43621773e-01 1.45049065e-01 1.46476358e-01 1.47903651e-01 1.49330959e-01 1.50758252e-01 1.52185544e-01 1.53612852e-01 1.55040145e-01 1.56467438e-01 1.57894731e-01 1.59322038e-01 1.60749331e-01 1.62176624e-01 1.63603932e-01 1.65031224e-01 1.66458517e-01 1.67885810e-01 1.69313118e-01 1.70740411e-01 1.72167704e-01 1.73595011e-01 1.75022304e-01 1.76449597e-01 1.77876890e-01 1.79304197e-01 1.80731490e-01 1.82158783e-01 1.83586091e-01 1.85013384e-01 1.86440676e-01 1.87867969e-01 1.89295277e-01 1.90722570e-01 1.92149863e-01 1.93577170e-01 1.95004463e-01 1.96431756e-01 1.97859049e-01 1.99286357e-01 2.00713649e-01 2.02140942e-01 2.03568250e-01 2.04995543e-01 2.06422836e-01 2.07850128e-01 2.09277436e-01 2.10704729e-01 2.12132022e-01 2.13559315e-01 2.14986622e-01 2.16413915e-01 2.17841208e-01 2.19268516e-01 2.20695809e-01 2.22123101e-01 2.23550394e-01 2.24977702e-01 2.26404995e-01 2.27832288e-01 2.29259595e-01 2.30686888e-01 2.32114181e-01 2.33541474e-01 2.34968781e-01 2.36396074e-01 2.37823367e-01 2.39250675e-01 2.40677968e-01 2.42105260e-01 2.43532553e-01 2.44959861e-01 2.46387154e-01 2.47814447e-01 2.49241754e-01 2.50669032e-01 2.52096355e-01 2.53523648e-01 2.54950941e-01 2.56378233e-01 2.57805526e-01 2.59232819e-01 2.60660112e-01 2.62087435e-01 2.63514727e-01 2.64942020e-01 2.66369313e-01 2.67796606e-01 2.69223899e-01 2.70651191e-01 2.72078514e-01 2.73505807e-01 2.74933100e-01 2.76360393e-01 2.77787685e-01 2.79214978e-01 2.80642271e-01 2.82069594e-01 2.83496886e-01 2.84924179e-01 2.86351472e-01 2.87778765e-01 2.89206058e-01 2.90633351e-01 2.92060673e-01 2.93487966e-01 2.94915259e-01 2.96342552e-01 2.97769845e-01 2.99197137e-01 3.00624430e-01 3.02051753e-01 3.03479046e-01 3.04906338e-01 3.06333631e-01 3.07760924e-01 3.09188217e-01 3.10615510e-01 3.12042832e-01 3.13470125e-01 3.14897418e-01 3.16324711e-01 3.17752004e-01 3.19179296e-01 3.20606589e-01 3.22033912e-01 3.23461205e-01 3.24888498e-01 3.26315790e-01 3.27743083e-01 3.29170376e-01 3.30597669e-01 3.32024992e-01 3.33452284e-01 3.34879577e-01 3.36306870e-01 3.37734163e-01 3.39161456e-01 3.40588748e-01 3.42016071e-01 3.43443364e-01 3.44870657e-01 3.46297950e-01 3.47725242e-01 3.49152535e-01 3.50579828e-01 3.52007151e-01 3.53434443e-01 3.54861736e-01 3.56289029e-01 3.57716322e-01 3.59143615e-01 3.60570908e-01 3.61998230e-01 3.63425523e-01 3.64852816e-01 3.66280109e-01 3.67707402e-01 3.69134694e-01 3.70561987e-01 3.71989310e-01 3.73416603e-01 3.74843895e-01 3.76271188e-01 3.77698481e-01 3.79125774e-01 3.80553067e-01 3.81980389e-01 3.83407682e-01 3.84834975e-01 3.86262268e-01 3.87689561e-01 3.89116853e-01 3.90544146e-01 3.91971469e-01 3.93398762e-01 3.94826055e-01 3.96253347e-01 3.97680640e-01 3.99107933e-01 4.00535226e-01 4.01962519e-01 4.03389841e-01 4.04817134e-01 4.06244427e-01 4.07671720e-01 4.09099013e-01 4.10526305e-01 4.11953598e-01 4.13380921e-01 4.14808214e-01 4.16235507e-01 4.17662799e-01 4.19090092e-01 4.20517385e-01 4.21944678e-01 4.23372000e-01 4.24799293e-01 4.26226586e-01 4.27653879e-01 4.29081172e-01 4.30508465e-01 4.31935757e-01 4.33363080e-01 4.34790373e-01 4.36217666e-01 4.37644958e-01 4.39072251e-01 4.40499544e-01 4.41926837e-01 4.43354160e-01 4.44781452e-01 4.46208745e-01 4.47636038e-01 4.49063331e-01 4.50490624e-01 4.51917917e-01 4.53345239e-01 4.54772532e-01 4.56199825e-01 4.57627118e-01 4.59054410e-01 4.60481703e-01 4.61908996e-01 4.63336319e-01 4.64763612e-01 4.66190904e-01 4.67618197e-01 4.69045490e-01 4.70472783e-01 4.71900076e-01 4.73327398e-01 4.74754691e-01 4.76181984e-01 4.77609277e-01 4.79036570e-01 4.80463862e-01 4.81891155e-01 4.83318478e-01 4.84745771e-01 4.86173064e-01 4.87600356e-01 4.89027649e-01 4.90454942e-01 4.91882235e-01 4.93309557e-01 4.94736850e-01 4.96164143e-01 4.97591436e-01 4.99018729e-01 5.00446022e-01 5.01873314e-01 5.03300607e-01 5.04727900e-01 5.06155193e-01 5.07582545e-01 5.09009838e-01 5.10437131e-01 5.11864424e-01 5.13291717e-01 5.14719009e-01 5.16146302e-01 5.17573595e-01 5.19000888e-01 5.20428181e-01 5.21855474e-01 5.23282766e-01 5.24710059e-01 5.26137352e-01 5.27564645e-01 5.28991997e-01 5.30419290e-01 5.31846583e-01 5.33273876e-01 5.34701169e-01 5.36128461e-01 5.37555754e-01 5.38983047e-01 5.40410340e-01 5.41837633e-01 5.43264925e-01 5.44692218e-01 5.46119511e-01 5.47546804e-01 5.48974156e-01 5.50401449e-01 5.51828742e-01 5.53256035e-01 5.54683328e-01 5.56110620e-01 5.57537913e-01 5.58965206e-01 5.60392499e-01 5.61819792e-01 5.63247085e-01 5.64674377e-01 5.66101670e-01 5.67528963e-01 5.68956316e-01 5.70383608e-01 5.71810901e-01 5.73238194e-01 5.74665487e-01 5.76092780e-01 5.77520072e-01 5.78947365e-01 5.80374658e-01 5.81801951e-01 5.83229244e-01 5.84656537e-01 5.86083829e-01 5.87511122e-01 5.88938475e-01 5.90365767e-01 5.91793060e-01 5.93220353e-01 5.94647646e-01 5.96074939e-01 5.97502232e-01 5.98929524e-01 6.00356817e-01 6.01784110e-01 6.03211403e-01 6.04638696e-01 6.06065989e-01 6.07493281e-01 6.08920634e-01 6.10347927e-01 6.11775219e-01 6.13202512e-01 6.14629805e-01 6.16057098e-01 6.17484391e-01 6.18911684e-01 6.20338976e-01 6.21766269e-01 6.23193562e-01 6.24620855e-01 6.26048148e-01 6.27475441e-01 6.28902793e-01 6.30330086e-01 6.31757379e-01 6.33184671e-01 6.34611964e-01 6.36039257e-01 6.37466550e-01 6.38893843e-01 6.40321136e-01 6.41748428e-01 6.43175721e-01 6.44603014e-01 6.46030307e-01 6.47457600e-01 6.48884952e-01 6.50312245e-01 6.51739538e-01 6.53166831e-01 6.54594123e-01 6.56021416e-01 6.57448709e-01 6.58876002e-01 6.60303295e-01 6.61730587e-01 6.63157880e-01 6.64585173e-01 6.66012466e-01 6.67439759e-01 6.68867111e-01 6.70294404e-01 6.71721697e-01 6.73148990e-01 6.74576283e-01 6.76003575e-01 6.77430868e-01 6.78858161e-01 6.80285454e-01 6.81712747e-01 6.83140039e-01 6.84567332e-01 6.85994625e-01 6.87421918e-01 6.88849270e-01 6.90276563e-01 6.91703856e-01 6.93131149e-01 6.94558442e-01 6.95985734e-01 6.97413027e-01 6.98840320e-01 7.00267613e-01 7.01694906e-01 7.03122199e-01 7.04549491e-01 7.05976784e-01 7.07404077e-01 7.08831429e-01 7.10258722e-01 7.11686015e-01 7.13113308e-01 7.14540601e-01 7.15967894e-01 7.17395186e-01 7.18822479e-01 7.20249772e-01 7.21677065e-01 7.23104358e-01 7.24531651e-01 7.25958943e-01 7.27386236e-01 7.28813589e-01 7.30240881e-01 7.31668174e-01 7.33095467e-01 7.34522760e-01 7.35950053e-01 7.37377346e-01 7.38804638e-01 7.40231931e-01 7.41659224e-01 7.43086517e-01 7.44513810e-01 7.45941103e-01 7.47368395e-01 7.48795748e-01 7.50223041e-01 7.51650333e-01 7.53077626e-01 7.54504919e-01 7.55932212e-01 7.57359505e-01 7.58786798e-01 7.60214090e-01 7.61641383e-01 7.63068676e-01 7.64495969e-01 7.65923262e-01 7.67350554e-01 7.68777847e-01 7.70205200e-01 7.71632493e-01 7.73059785e-01 7.74487078e-01 7.75914371e-01 7.77341664e-01 7.78768957e-01 7.80196249e-01 7.81623542e-01 7.83050835e-01 7.84478128e-01 7.85905421e-01 7.87332714e-01 7.88760006e-01 7.90187359e-01 7.91614652e-01 7.93041945e-01 7.94469237e-01 7.95896530e-01 7.97323823e-01 7.98751116e-01 8.00178409e-01 8.01605701e-01 8.03032994e-01 8.04460287e-01 8.05887580e-01 8.07314873e-01 8.08742166e-01 8.10169518e-01 8.11596811e-01 8.13024104e-01 8.14451396e-01 8.15878689e-01 8.17305982e-01 8.18733275e-01 8.20160568e-01 8.21587861e-01 8.23015153e-01 8.24442446e-01 8.25869739e-01 8.27297032e-01 8.28724325e-01 8.30151677e-01 8.31578970e-01 8.33006263e-01 8.34433556e-01 8.35860848e-01 8.37288141e-01 8.38715434e-01 8.40142727e-01 8.41570020e-01 8.42997313e-01 8.44424605e-01 8.45851898e-01 8.47279191e-01 8.48706484e-01 8.50133836e-01 8.51561129e-01 8.52988422e-01 8.54415715e-01 8.55843008e-01 8.57270300e-01 8.58697593e-01 8.60124886e-01 8.61552179e-01 8.62979472e-01 8.64406765e-01 8.65834057e-01 8.67261350e-01 8.68688643e-01 8.70115995e-01 8.71543288e-01 8.72970581e-01 8.74397874e-01 8.75825167e-01 8.77252460e-01 8.78679752e-01 8.80107045e-01 8.81534338e-01 8.82961631e-01 8.84388924e-01 8.85816216e-01 8.87243509e-01 8.88670802e-01 8.90098155e-01 8.91525447e-01 8.92952740e-01 8.94380033e-01 8.95807326e-01 8.97234619e-01 8.98661911e-01 9.00089204e-01 9.01516497e-01 9.02943790e-01 9.04371083e-01 9.05798376e-01 9.07225668e-01 9.08652961e-01 9.10080314e-01 9.11507607e-01 9.12934899e-01 9.14362192e-01 9.15789485e-01 9.17216778e-01 9.18644071e-01 9.20071363e-01 9.21498656e-01 9.22925949e-01 9.24353242e-01 9.25780535e-01 9.27207828e-01 9.28635120e-01 9.30062473e-01 9.31489766e-01 9.32917058e-01 9.34344351e-01 9.35771644e-01 9.37198937e-01 9.38626230e-01 9.40053523e-01 9.41480815e-01 9.42908108e-01 9.44335401e-01 9.45762694e-01 9.47189987e-01 9.48617280e-01 9.50044632e-01 9.51471925e-01 9.52899218e-01 9.54326510e-01 9.55753803e-01 9.57181096e-01 9.58608389e-01 9.60035682e-01 9.61462975e-01 9.62890267e-01 9.64317560e-01 9.65744853e-01 9.67172146e-01 9.68599439e-01 9.70026791e-01 9.71454084e-01 9.72881377e-01 9.74308670e-01 9.75735962e-01 9.77163255e-01 9.78590548e-01 9.80017841e-01 9.81445134e-01 9.82872427e-01 9.84299719e-01 9.85727012e-01 9.87154305e-01 9.88581598e-01 9.90008950e-01 9.91436243e-01 9.92863536e-01 9.94290829e-01 9.95718122e-01 9.97145414e-01 9.98572707e-01 1.00000000e+00 
            </Histogram>
            <HistogramBinning NBins="701">
              1.72140956e-01 1.72240958e-01 2.27412373e-01 2.51257330e-01 2.73972213e-01 2.97595948e-01 3.17115694e-01 3.27437729e-01 3.40036988e-01 3.48444462e-01 3.59470069e-01 3.64926428e-01 3.74815196e-01 3.86701763e-01 3.91852498e-01 4.01356936e-01 4.09680039e-01 4.17666763e-01 4.29433554e-01 4.34019864e-01 4.38698530e-01 4.43516344e-01 4.49832469e-01 4.57677782e-01 4.68873292e-01 4.74383265e-01 4.79974210e-01 4.88271087e-01 4.94128823e-01 4.97484744e-01 5.02820253e-01 5.06811321e-01 5.13561904e-01 5.18621445e-01 5.22947729e-01 5.25965035e-01 5.28820395e-01 5.32318771e-01 5.35836637e-01 5.40154994e-01 5.43684244e-01 5.49626410e-01 5.56251526e-01 5.61390936e-01 5.65595210e-01 5.69431186e-01 5.74833989e-01 5.76021016e-01 5.80322266e-01 5.83513975e-01 5.86003244e-01 5.89722991e-01 5.91971636e-01 5.96120059e-01 6.01065576e-01 6.03134096e-01 6.06013358e-01 6.09182298e-01 6.11102521e-01 6.15334213e-01 6.18947864e-01 6.22925222e-01 6.24801040e-01 6.26295984e-01 6.29046381e-01 6.31212950e-01 6.33579135e-01 6.36917949e-01 6.40668392e-01 6.43805385e-01 6.46424711e-01 6.48666501e-01 6.51723683e-01 6.52873099e-01 6.54477537e-01 6.56776369e-01 6.59311295e-01 6.61944270e-01 6.62845075e-01 6.66174769e-01 6.68076813e-01 6.69429243e-01 6.71796501e-01 6.73625529e-01 6.75614238e-01 6.76775038e-01 6.78563058e-01 6.80186868e-01 6.81442380e-01 6.82891667e-01 6.83571279e-01 6.85363829e-01 6.87560081e-01 6.88604593e-01 6.90277457e-01 6.91693664e-01 6.93911552e-01 6.94530725e-01 6.96286857e-01 6.97704256e-01 6.99231088e-01 7.01315582e-01 7.03054547e-01 7.04575717e-01 7.05727458e-01 7.06610024e-01 7.08280563e-01 7.09062815e-01 7.11179256e-01 7.13238657e-01 7.14097261e-01 7.16365337e-01 7.17590034e-01 7.19863832e-01 7.20766902e-01 7.21778393e-01 7.23816097e-01 7.24537909e-01 7.25192428e-01 7.26073921e-01 7.27613330e-01 7.29303241e-01 7.30110645e-01 7.32094705e-01 7.33211100e-01 7.34271586e-01 7.35620618e-01 7.37654865e-01 7.38337874e-01 7.40171492e-01 7.41102040e-01 7.42326677e-01 7.43704200e-01 7.45042861e-01 7.46507049e-01 7.48008847e-01 7.49043047e-01 7.49579072e-01 7.50468433e-01 7.51833439e-01 7.52373993e-01 7.54461825e-01 7.55223513e-01 7.56497264e-01 7.57451713e-01 7.58170068e-01 7.59012818e-01 7.59694695e-01 7.61538565e-01 7.62844205e-01 7.64327705e-01 7.65135050e-01 7.66349494e-01 7.67205894e-01 7.68244743e-01 7.69212842e-01 7.70101130e-01 7.71361232e-01 7.71979272e-01 7.72643983e-01 7.73494661e-01 7.74184585e-01 7.74850547e-01 7.76078582e-01 7.77364910e-01 7.78288543e-01 7.79016018e-01 7.80329704e-01 7.81248748e-01 7.82521367e-01 7.84276307e-01 7.85207868e-01 7.85676539e-01 7.86680043e-01 7.87754238e-01 7.88381398e-01 7.88887680e-01 7.89859235e-01 7.91056514e-01 7.91504681e-01 7.92174041e-01 7.92728186e-01 7.93537796e-01 7.94274509e-01 7.94926763e-01 7.95474052e-01 7.96239197e-01 7.97319114e-01 7.98159540e-01 7.98735380e-01 7.99484491e-01 8.00617993e-01 8.01283956e-01 8.01894009e-01 8.02513182e-01 8.03224742e-01 8.03967118e-01 8.04511011e-01 8.05027604e-01 8.05512190e-01 8.06067526e-01 8.06879461e-01 8.07593286e-01 8.08613837e-01 8.08979869e-01 8.09516966e-01 8.10302556e-01 8.11421275e-01 8.12052965e-01 8.12730372e-01 8.13176215e-01 8.13531935e-01 8.14274311e-01 8.14733863e-01 8.15806866e-01 8.16645026e-01 8.17330301e-01 8.17812622e-01 8.18375945e-01 8.18807006e-01 8.19434226e-01 8.19929063e-01 8.20230126e-01 8.20900619e-01 8.21653187e-01 8.22296381e-01 8.23315799e-01 8.23964655e-01 8.24275911e-01 8.25155139e-01 8.25871229e-01 8.26720774e-01 8.27334285e-01 8.27957988e-01 8.28565717e-01 8.29236209e-01 8.30116570e-01 8.30487192e-01 8.31110954e-01 8.31902325e-01 8.33244443e-01 8.34133863e-01 8.34709764e-01 8.35704029e-01 8.36533070e-01 8.37134063e-01 8.37685943e-01 8.38200212e-01 8.38610768e-01 8.39144409e-01 8.39728236e-01 8.40349674e-01 8.40903878e-01 8.41342926e-01 8.41838896e-01 8.42167318e-01 8.43002021e-01 8.43674839e-01 8.44217598e-01 8.44791174e-01 8.45191419e-01 8.45906436e-01 8.46314609e-01 8.46992016e-01 8.47413838e-01 8.47862005e-01 8.48310232e-01 8.48843873e-01 8.49268079e-01 8.49730968e-01 8.50206494e-01 8.50790381e-01 8.51514459e-01 8.51916969e-01 8.52121055e-01 8.53078961e-01 8.53846371e-01 8.54416549e-01 8.54939938e-01 8.55328739e-01 8.55772316e-01 8.56148601e-01 8.56601357e-01 8.57128084e-01 8.57751906e-01 8.58049512e-01 8.58827174e-01 8.59225214e-01 8.59675586e-01 8.60016525e-01 8.60724688e-01 8.60940218e-01 8.61633480e-01 8.61966431e-01 8.62663209e-01 8.63142133e-01 8.63662124e-01 8.64101112e-01 8.64850283e-01 8.65350962e-01 8.65984917e-01 8.66669059e-01 8.67226720e-01 8.67701054e-01 8.68279219e-01 8.68648708e-01 8.69086564e-01 8.69518697e-01 8.70048940e-01 8.70612264e-01 8.71106029e-01 8.71987462e-01 8.72551858e-01 8.72934997e-01 8.73203039e-01 8.73589575e-01 8.74049127e-01 8.74653518e-01 8.74942005e-01 8.75174642e-01 8.76113057e-01 8.77008200e-01 8.77642274e-01 8.77987742e-01 8.78995776e-01 8.79658341e-01 8.80202293e-01 8.80531847e-01 8.81220520e-01 8.81778181e-01 8.82779360e-01 8.83429289e-01 8.83960664e-01 8.84516001e-01 8.85006309e-01 8.85481834e-01 8.86205971e-01 8.86877596e-01 8.87573183e-01 8.87943745e-01 8.88533354e-01 8.88869762e-01 8.89145613e-01 8.89430702e-01 8.89752269e-01 8.90183330e-01 8.90592694e-01 8.91077340e-01 8.91673684e-01 8.91939402e-01 8.92377257e-01 8.92937183e-01 8.93237054e-01 8.93654406e-01 8.94318104e-01 8.94755960e-01 8.95330667e-01 8.96066189e-01 8.96834731e-01 8.97224724e-01 8.97614717e-01 8.97938550e-01 8.98402691e-01 8.98901045e-01 8.99423242e-01 9.00032163e-01 9.00524735e-01 9.00984287e-01 9.01427865e-01 9.02086973e-01 9.02475893e-01 9.02946770e-01 9.03497577e-01 9.04326618e-01 9.04675424e-01 9.05330002e-01 9.05803204e-01 9.06518281e-01 9.06828403e-01 9.07429278e-01 9.07923102e-01 9.08510327e-01 9.08864975e-01 9.09408867e-01 9.09828544e-01 9.10181999e-01 9.10701990e-01 9.11150157e-01 9.11682665e-01 9.12102342e-01 9.12744284e-01 9.13119435e-01 9.13657665e-01 9.14054513e-01 9.14298534e-01 9.14804876e-01 9.15096760e-01 9.15466189e-01 9.16251898e-01 9.17055786e-01 9.17763948e-01 9.18214321e-01 9.18752611e-01 9.19108331e-01 9.19383168e-01 9.19921398e-01 9.20313656e-01 9.20700192e-01 9.21158612e-01 9.21704769e-01 9.22450542e-01 9.22902167e-01 9.23338890e-01 9.23723161e-01 9.24410760e-01 9.24836099e-01 9.25344706e-01 9.25785959e-01 9.26567018e-01 9.27033424e-01 9.27755296e-01 9.28784966e-01 9.29553509e-01 9.30104315e-01 9.30517137e-01 9.31075811e-01 9.31526303e-01 9.32037175e-01 9.32497799e-01 9.33022320e-01 9.34077084e-01 9.34929013e-01 9.35651839e-01 9.36556220e-01 9.37008858e-01 9.37474132e-01 9.38138902e-01 9.38655496e-01 9.39314604e-01 9.39912081e-01 9.40378487e-01 9.41209733e-01 9.42274809e-01 9.43037689e-01 9.43611264e-01 9.44422007e-01 9.44903195e-01 9.45506454e-01 9.46296632e-01 9.46894169e-01 9.47731137e-01 9.48289931e-01 9.49215889e-01 9.49954748e-01 9.50586438e-01 9.51457679e-01 9.51891005e-01 9.52308297e-01 9.52749670e-01 9.53192055e-01 9.53677833e-01 9.54427063e-01 9.55316484e-01 9.55888927e-01 9.56475019e-01 9.56940293e-01 9.57780719e-01 9.58215177e-01 9.58857119e-01 9.59439874e-01 9.60763693e-01 9.61688519e-01 9.62515235e-01 9.63344276e-01 9.63885903e-01 9.64596331e-01 9.65111732e-01 9.66139138e-01 9.66881454e-01 9.67325032e-01 9.68309164e-01 9.68660355e-01 9.69740212e-01 9.70367372e-01 9.71116602e-01 9.71931875e-01 9.73053992e-01 9.73872721e-01 9.75120187e-01 9.75506723e-01 9.76239920e-01 9.77200031e-01 9.78413343e-01 9.80121553e-01 9.81630206e-01 9.82844591e-01 9.83755708e-01 9.85307693e-01 9.85925734e-01 9.87121880e-01 9.87655520e-01 9.89043355e-01 9.90515411e-01 9.91395772e-01 9.93292093e-01 9.94720936e-01 9.96741533e-01 9.98165727e-01 9.98808920e-01 1.00055814e+00 1.00164938e+00 1.00323558e+00 1.00407827e+00 1.00582755e+00 1.00804305e+00 1.00893021e+00 1.01066124e+00 1.01235569e+00 1.01316535e+00 1.01439118e+00 1.01578355e+00 1.01805043e+00 1.02024555e+00 1.02214527e+00 1.02283967e+00 1.02466071e+00 1.02602911e+00 1.02712274e+00 1.02922893e+00 1.03081727e+00 1.03217769e+00 1.03327799e+00 1.03454041e+00 1.03634322e+00 1.03780282e+00 1.03931940e+00 1.04175401e+00 1.04314625e+00 1.04567432e+00 1.04786825e+00 1.04954684e+00 1.05120599e+00 1.05344093e+00 1.05489147e+00 1.05612743e+00 1.05884147e+00 1.06059515e+00 1.06237638e+00 1.06503093e+00 1.06634688e+00 1.06795132e+00 1.07038021e+00 1.07361639e+00 1.07598031e+00 1.07766676e+00 1.07964408e+00 1.08232713e+00 1.08446527e+00 1.08774137e+00 1.08960807e+00 1.09222615e+00 1.09529352e+00 1.09900880e+00 1.10291433e+00 1.10502720e+00 1.10820985e+00 1.11225903e+00 1.11417711e+00 1.11722732e+00 1.12194598e+00 1.12542844e+00 1.12768626e+00 1.13100457e+00 1.13295901e+00 1.13671410e+00 1.13992631e+00 1.14210773e+00 1.14512956e+00 1.14832246e+00 1.15435469e+00 1.15703440e+00 1.16038680e+00 1.16514194e+00 1.16843748e+00 1.17207503e+00 1.17388809e+00 1.17690980e+00 1.18066144e+00 1.18604374e+00 1.18987513e+00 1.19451618e+00 1.19897473e+00 1.20436835e+00 1.20916915e+00 1.21410668e+00 1.21832585e+00 1.22405016e+00 1.22753954e+00 1.23379970e+00 1.23959255e+00 1.24393702e+00 1.24767733e+00 1.25254643e+00 1.25821364e+00 1.26202238e+00 1.26666343e+00 1.27161229e+00 1.27636731e+00 1.28331184e+00 1.28865993e+00 1.29577541e+00 1.30146551e+00 1.30323303e+00 1.31015456e+00 1.31709909e+00 1.32408917e+00 1.32931173e+00 1.33486497e+00 1.34057808e+00 1.34837770e+00 1.35577834e+00 1.36173069e+00 1.36963296e+00 1.37660027e+00 1.38274658e+00 1.39027250e+00 1.40077484e+00 1.40791309e+00 1.41901970e+00 1.42600977e+00 1.43456209e+00 1.44398093e+00 1.44931757e+00 1.45430076e+00 1.46332049e+00 1.47165620e+00 1.48462152e+00 1.49489558e+00 1.49955952e+00 1.50871611e+00 1.51774740e+00 1.52764523e+00 1.53721249e+00 1.55486429e+00 1.56377017e+00 1.57705462e+00 1.58745420e+00 1.59673631e+00 1.61250687e+00 1.62829995e+00 1.63737690e+00 1.64706945e+00 1.66956770e+00 1.68867922e+00 1.71410811e+00 1.74031222e+00 1.75798702e+00 1.78116953e+00 1.79121554e+00 1.81851447e+00 1.82243717e+00 1.84414852e+00 1.87311244e+00 1.90496111e+00 1.93393636e+00 1.94645679e+00 1.96928573e+00 1.99024451e+00 2.01454449e+00 2.05305266e+00 2.08141208e+00 2.11048985e+00 2.15568018e+00 2.20410895e+00 2.24783969e+00 2.28215146e+00 2.32301998e+00 2.35537052e+00 2.41125703e+00 2.49026871e+00 2.51681519e+00 2.56917787e+00 2.67136073e+00 2.74865079e+00 2.81660151e+00 2.88963819e+00 2.99063492e+00 3.09648991e+00 3.21402097e+00 3.39596844e+00 3.50289464e+00 3.61963940e+00 3.72660017e+00 3.88309574e+00 4.12637997e+00 4.33830547e+00 4.47405910e+00 4.69405842e+00 5.00544167e+00 5.44882679e+00 6.89167881e+00 1.61319084e+01 
            </HistogramBinning>
          </PDF>
        </CumulativePDF_cls1>
        <CumulativePDF_cls2>
          <PDF Name="GaussTransform var0 cls2" MinNSmooth="0" MaxNSmooth="0" InterpolMethod="1" KDE_type="0" KDE_iter="1" KDE_border="1" KDE_finefactor="0.0000000000000000e+00">
            <Histogram Name="Cumulative_Var0_cls2_original" NBins="1401" XMin="1.5095862746238708e-01" XMax="1.6131908416748047e+01" HasEquidistantBins="0">
              5.17626060e-04 1.16019638e-03 1.86970108e-03 2.58813030e-03 3.30209732e-03 4.01606411e-03 4.73003136e-03 5.44399815e-03 6.15796540e-03 6.87193219e-03 7.58589897e-03 8.29986576e-03 9.01383348e-03 9.72780026e-03 1.04417671e-02 1.11557338e-02 1.18697006e-02 1.25836683e-02 1.32976351e-02 1.40116019e-02 1.47255687e-02 1.54395355e-02 1.61535032e-02 1.68674700e-02 1.75814368e-02 1.82954036e-02 1.90093704e-02 1.97233371e-02 2.04373039e-02 2.11512726e-02 2.18652394e-02 2.25792062e-02 2.32931729e-02 2.40071397e-02 2.47211065e-02 2.54350733e-02 2.61490401e-02 2.68630069e-02 2.75769737e-02 2.82909423e-02 2.90049091e-02 2.97188759e-02 3.04328427e-02 3.11468095e-02 3.18607762e-02 3.25747430e-02 3.32887098e-02 3.40026766e-02 3.47166434e-02 3.54306102e-02 3.61445770e-02 3.68585438e-02 3.75725105e-02 3.82864811e-02 3.90004478e-02 3.97144146e-02 4.04283814e-02 4.11423482e-02 4.18563150e-02 4.25702818e-02 4.32842486e-02 4.39982153e-02 4.47121821e-02 4.54261489e-02 4.61401157e-02 4.68540825e-02 4.75680493e-02 4.82820161e-02 4.89959829e-02 4.97099496e-02 5.04239164e-02 5.11378832e-02 5.18518500e-02 5.25658205e-02 5.32797873e-02 5.39937541e-02 5.47077209e-02 5.54216877e-02 5.61356544e-02 5.68496212e-02 5.75635880e-02 5.82775548e-02 5.89915216e-02 5.97054884e-02 6.04194552e-02 6.11334220e-02 6.18473887e-02 6.25613555e-02 6.32753223e-02 6.39892891e-02 6.47032559e-02 6.54172227e-02 6.61311895e-02 6.68451563e-02 6.75591230e-02 6.82730898e-02 6.89870566e-02 6.97010234e-02 7.04149902e-02 7.11289570e-02 7.18429238e-02 7.25568905e-02 7.32708648e-02 7.39848316e-02 7.46987984e-02 7.54127651e-02 7.61267319e-02 7.68406987e-02 7.75546655e-02 7.82686323e-02 7.89825991e-02 7.96965659e-02 8.04105327e-02 8.11244994e-02 8.18384662e-02 8.25524330e-02 8.32663998e-02 8.39803666e-02 8.46943334e-02 8.54083002e-02 8.61222669e-02 8.68362337e-02 8.75502005e-02 8.82641673e-02 8.89781341e-02 8.96921009e-02 9.04060677e-02 9.11200345e-02 9.18340012e-02 9.25479680e-02 9.32619348e-02 9.39759016e-02 9.46898684e-02 9.54038352e-02 9.61178020e-02 9.68317688e-02 9.75457355e-02 9.82597023e-02 9.89736691e-02 9.96876359e-02 1.00401610e-01 1.01115577e-01 1.01829544e-01 1.02543510e-01 1.03257477e-01 1.03971444e-01 1.04685411e-01 1.05399378e-01 1.06113344e-01 1.06827311e-01 1.07541278e-01 1.08255245e-01 1.08969212e-01 1.09683178e-01 1.10397145e-01 1.11111112e-01 1.11825079e-01 1.12539046e-01 1.13253012e-01 1.13966979e-01 1.14680946e-01 1.15394913e-01 1.16108879e-01 1.16822846e-01 1.17536813e-01 1.18250780e-01 1.18964747e-01 1.19678713e-01 1.20392680e-01 1.21106647e-01 1.21820614e-01 1.22534581e-01 1.23248547e-01 1.23962514e-01 1.24676481e-01 1.25390455e-01 1.26104414e-01 1.26818389e-01 1.27532348e-01 1.28246322e-01 1.28960282e-01 1.29674256e-01 1.30388215e-01 1.31102189e-01 1.31816149e-01 1.32530123e-01 1.33244082e-01 1.33958057e-01 1.34672016e-01 1.35385990e-01 1.36099949e-01 1.36813924e-01 1.37527883e-01 1.38241857e-01 1.38955817e-01 1.39669791e-01 1.40383750e-01 1.41097724e-01 1.41811684e-01 1.42525658e-01 1.43239632e-01 1.43953592e-01 1.44667566e-01 1.45381525e-01 1.46095499e-01 1.46809459e-01 1.47523433e-01 1.48237392e-01 1.48951367e-01 1.49665326e-01 1.50379300e-01 1.51093259e-01 1.51807234e-01 1.52521193e-01 1.53235167e-01 1.53949127e-01 1.54663101e-01 1.55377060e-01 1.56091034e-01 1.56804994e-01 1.57518968e-01 1.58232927e-01 1.58946902e-01 1.59660861e-01 1.60374835e-01 1.61088794e-01 1.61802769e-01 1.62516728e-01 1.63230702e-01 1.63944662e-01 1.64658636e-01 1.65372595e-01 1.66086569e-01 1.66800529e-01 1.67514503e-01 1.68228462e-01 1.68942437e-01 1.69656411e-01 1.70370370e-01 1.71084344e-01 1.71798304e-01 1.72512278e-01 1.73226237e-01 1.73940212e-01 1.74654171e-01 1.75368145e-01 1.76082104e-01 1.76796079e-01 1.77510038e-01 1.78224012e-01 1.78937972e-01 1.79651946e-01 1.80365905e-01 1.81079879e-01 1.81793839e-01 1.82507813e-01 1.83221772e-01 1.83935747e-01 1.84649706e-01 1.85363680e-01 1.86077639e-01 1.86791614e-01 1.87505573e-01 1.88219547e-01 1.88933507e-01 1.89647481e-01 1.90361440e-01 1.91075414e-01 1.91789374e-01 1.92503348e-01 1.93217307e-01 1.93931282e-01 1.94645241e-01 1.95359215e-01 1.96073174e-01 1.96787149e-01 1.97501123e-01 1.98215082e-01 1.98929057e-01 1.99643016e-01 2.00356990e-01 2.01070949e-01 2.01784924e-01 2.02498883e-01 2.03212857e-01 2.03926817e-01 2.04640791e-01 2.05354750e-01 2.06068724e-01 2.06782684e-01 2.07496658e-01 2.08210617e-01 2.08924592e-01 2.09638551e-01 2.10352525e-01 2.11066484e-01 2.11780459e-01 2.12494418e-01 2.13208392e-01 2.13922352e-01 2.14636326e-01 2.15350285e-01 2.16064259e-01 2.16778219e-01 2.17492193e-01 2.18206152e-01 2.18920127e-01 2.19634086e-01 2.20348060e-01 2.21062019e-01 2.21775994e-01 2.22489953e-01 2.23203927e-01 2.23917887e-01 2.24631861e-01 2.25345835e-01 2.26059794e-01 2.26773769e-01 2.27487728e-01 2.28201702e-01 2.28915662e-01 2.29629636e-01 2.30343595e-01 2.31057569e-01 2.31771529e-01 2.32485503e-01 2.33199462e-01 2.33913437e-01 2.34627396e-01 2.35341370e-01 2.36055329e-01 2.36769304e-01 2.37483263e-01 2.38197237e-01 2.38911197e-01 2.39625171e-01 2.40339130e-01 2.41053104e-01 2.41767064e-01 2.42481038e-01 2.43194997e-01 2.43908972e-01 2.44622931e-01 2.45336905e-01 2.46050864e-01 2.46764839e-01 2.47478798e-01 2.48192772e-01 2.48906732e-01 2.49620706e-01 2.50334680e-01 2.51048625e-01 2.51762599e-01 2.52476573e-01 2.53190547e-01 2.53904521e-01 2.54618466e-01 2.55332440e-01 2.56046414e-01 2.56760389e-01 2.57474333e-01 2.58188307e-01 2.58902282e-01 2.59616256e-01 2.60330200e-01 2.61044174e-01 2.61758149e-01 2.62472123e-01 2.63186067e-01 2.63900042e-01 2.64614016e-01 2.65327990e-01 2.66041934e-01 2.66755909e-01 2.67469883e-01 2.68183857e-01 2.68897802e-01 2.69611776e-01 2.70325750e-01 2.71039724e-01 2.71753669e-01 2.72467643e-01 2.73181617e-01 2.73895591e-01 2.74609536e-01 2.75323510e-01 2.76037484e-01 2.76751459e-01 2.77465403e-01 2.78179377e-01 2.78893352e-01 2.79607326e-01 2.80321300e-01 2.81035244e-01 2.81749219e-01 2.82463193e-01 2.83177167e-01 2.83891112e-01 2.84605086e-01 2.85319060e-01 2.86033034e-01 2.86746979e-01 2.87460953e-01 2.88174927e-01 2.88888901e-01 2.89602846e-01 2.90316820e-01 2.91030794e-01 2.91744769e-01 2.92458713e-01 2.93172687e-01 2.93886662e-01 2.94600636e-01 2.95314580e-01 2.96028554e-01 2.96742529e-01 2.97456503e-01 2.98170447e-01 2.98884422e-01 2.99598396e-01 3.00312370e-01 3.01026314e-01 3.01740289e-01 3.02454263e-01 3.03168237e-01 3.03882182e-01 3.04596156e-01 3.05310130e-01 3.06024104e-01 3.06738049e-01 3.07452023e-01 3.08165997e-01 3.08879972e-01 3.09593946e-01 3.10307890e-01 3.11021864e-01 3.11735839e-01 3.12449813e-01 3.13163757e-01 3.13877732e-01 3.14591706e-01 3.15305680e-01 3.16019624e-01 3.16733599e-01 3.17447573e-01 3.18161547e-01 3.18875492e-01 3.19589466e-01 3.20303440e-01 3.21017414e-01 3.21731359e-01 3.22445333e-01 3.23159307e-01 3.23873281e-01 3.24587226e-01 3.25301200e-01 3.26015174e-01 3.26729149e-01 3.27443093e-01 3.28157067e-01 3.28871042e-01 3.29585016e-01 3.30298960e-01 3.31012934e-01 3.31726909e-01 3.32440883e-01 3.33154827e-01 3.33868802e-01 3.34582776e-01 3.35296750e-01 3.36010724e-01 3.36724669e-01 3.37438643e-01 3.38152617e-01 3.38866591e-01 3.39580536e-01 3.40294510e-01 3.41008484e-01 3.41722459e-01 3.42436403e-01 3.43150377e-01 3.43864352e-01 3.44578326e-01 3.45292270e-01 3.46006244e-01 3.46720219e-01 3.47434193e-01 3.48148137e-01 3.48862112e-01 3.49576086e-01 3.50290060e-01 3.51004004e-01 3.51717979e-01 3.52431953e-01 3.53145927e-01 3.53859872e-01 3.54573846e-01 3.55287820e-01 3.56001794e-01 3.56715739e-01 3.57429713e-01 3.58143687e-01 3.58857661e-01 3.59571606e-01 3.60285580e-01 3.60999554e-01 3.61713529e-01 3.62427473e-01 3.63141447e-01 3.63855422e-01 3.64569396e-01 3.65283370e-01 3.65997314e-01 3.66711289e-01 3.67425263e-01 3.68139237e-01 3.68853182e-01 3.69567156e-01 3.70281130e-01 3.70995104e-01 3.71709049e-01 3.72423023e-01 3.73136997e-01 3.73850971e-01 3.74564916e-01 3.75278890e-01 3.75992864e-01 3.76706839e-01 3.77420783e-01 3.78134757e-01 3.78848732e-01 3.79562706e-01 3.80276650e-01 3.80990624e-01 3.81704599e-01 3.82418573e-01 3.83132517e-01 3.83846492e-01 3.84560466e-01 3.85274440e-01 3.85988384e-01 3.86702359e-01 3.87416333e-01 3.88130307e-01 3.88844252e-01 3.89558226e-01 3.90272200e-01 3.90986174e-01 3.91700149e-01 3.92414093e-01 3.93128067e-01 3.93842041e-01 3.94556016e-01 3.95269960e-01 3.95983934e-01 3.96697909e-01 3.97411883e-01 3.98125827e-01 3.98839802e-01 3.99553776e-01 4.00267750e-01 4.00981694e-01 4.01695669e-01 4.02409643e-01 4.03123617e-01 4.03837562e-01 4.04551536e-01 4.05265510e-01 4.05979484e-01 4.06693429e-01 4.07407403e-01 4.08121377e-01 4.08835351e-01 4.09549296e-01 4.10263270e-01 4.10977244e-01 4.11691219e-01 4.12405163e-01 4.13119137e-01 4.13833112e-01 4.14547086e-01 4.15261030e-01 4.15975004e-01 4.16688979e-01 4.17402953e-01 4.18116897e-01 4.18830872e-01 4.19544846e-01 4.20258820e-01 4.20972794e-01 4.21686739e-01 4.22400713e-01 4.23114687e-01 4.23828661e-01 4.24542606e-01 4.25256580e-01 4.25970554e-01 4.26684529e-01 4.27398473e-01 4.28112447e-01 4.28826421e-01 4.29540396e-01 4.30254340e-01 4.30968314e-01 4.31682289e-01 4.32396263e-01 4.33110207e-01 4.33824182e-01 4.34538156e-01 4.35252130e-01 4.35966074e-01 4.36680049e-01 4.37394023e-01 4.38107997e-01 4.38821942e-01 4.39535916e-01 4.40249890e-01 4.40963864e-01 4.41677809e-01 4.42391783e-01 4.43105757e-01 4.43819731e-01 4.44533676e-01 4.45247650e-01 4.45961624e-01 4.46675599e-01 4.47389573e-01 4.48103517e-01 4.48817492e-01 4.49531466e-01 4.50245440e-01 4.50959384e-01 4.51673359e-01 4.52387333e-01 4.53101307e-01 4.53815252e-01 4.54529226e-01 4.55243200e-01 4.55957174e-01 4.56671119e-01 4.57385093e-01 4.58099067e-01 4.58813041e-01 4.59526986e-01 4.60240960e-01 4.60954934e-01 4.61668909e-01 4.62382853e-01 4.63096827e-01 4.63810802e-01 4.64524776e-01 4.65238720e-01 4.65952694e-01 4.66666669e-01 4.67380643e-01 4.68094587e-01 4.68808562e-01 4.69522536e-01 4.70236510e-01 4.70950454e-01 4.71664429e-01 4.72378403e-01 4.73092377e-01 4.73806322e-01 4.74520296e-01 4.75234270e-01 4.75948244e-01 4.76662219e-01 4.77376163e-01 4.78090137e-01 4.78804111e-01 4.79518086e-01 4.80232030e-01 4.80946004e-01 4.81659979e-01 4.82373953e-01 4.83087897e-01 4.83801872e-01 4.84515846e-01 4.85229820e-01 4.85943764e-01 4.86657739e-01 4.87371713e-01 4.88085687e-01 4.88799632e-01 4.89513606e-01 4.90227580e-01 4.90941554e-01 4.91655499e-01 4.92369473e-01 4.93083447e-01 4.93797421e-01 4.94511366e-01 4.95225340e-01 4.95939314e-01 4.96653289e-01 4.97367233e-01 4.98081207e-01 4.98795182e-01 4.99509156e-01 5.00223100e-01 5.00937104e-01 5.01651049e-01 5.02364993e-01 5.03078997e-01 5.03792942e-01 5.04506946e-01 5.05220890e-01 5.05934834e-01 5.06648839e-01 5.07362783e-01 5.08076727e-01 5.08790731e-01 5.09504676e-01 5.10218680e-01 5.10932624e-01 5.11646569e-01 5.12360573e-01 5.13074517e-01 5.13788462e-01 5.14502466e-01 5.15216410e-01 5.15930414e-01 5.16644359e-01 5.17358303e-01 5.18072307e-01 5.18786252e-01 5.19500196e-01 5.20214200e-01 5.20928144e-01 5.21642148e-01 5.22356093e-01 5.23070037e-01 5.23784041e-01 5.24497986e-01 5.25211930e-01 5.25925934e-01 5.26639879e-01 5.27353883e-01 5.28067827e-01 5.28781772e-01 5.29495776e-01 5.30209720e-01 5.30923724e-01 5.31637669e-01 5.32351613e-01 5.33065617e-01 5.33779562e-01 5.34493506e-01 5.35207510e-01 5.35921454e-01 5.36635458e-01 5.37349403e-01 5.38063347e-01 5.38777351e-01 5.39491296e-01 5.40205240e-01 5.40919244e-01 5.41633189e-01 5.42347193e-01 5.43061137e-01 5.43775082e-01 5.44489086e-01 5.45203030e-01 5.45916975e-01 5.46630979e-01 5.47344923e-01 5.48058927e-01 5.48772871e-01 5.49486816e-01 5.50200820e-01 5.50914764e-01 5.51628709e-01 5.52342713e-01 5.53056657e-01 5.53770661e-01 5.54484606e-01 5.55198550e-01 5.55912554e-01 5.56626499e-01 5.57340503e-01 5.58054447e-01 5.58768392e-01 5.59482396e-01 5.60196340e-01 5.60910285e-01 5.61624289e-01 5.62338233e-01 5.63052237e-01 5.63766181e-01 5.64480126e-01 5.65194130e-01 5.65908074e-01 5.66622019e-01 5.67336023e-01 5.68049967e-01 5.68763971e-01 5.69477916e-01 5.70191860e-01 5.70905864e-01 5.71619809e-01 5.72333753e-01 5.73047757e-01 5.73761702e-01 5.74475706e-01 5.75189650e-01 5.75903594e-01 5.76617599e-01 5.77331543e-01 5.78045487e-01 5.78759491e-01 5.79473436e-01 5.80187440e-01 5.80901384e-01 5.81615329e-01 5.82329333e-01 5.83043277e-01 5.83757222e-01 5.84471226e-01 5.85185170e-01 5.85899174e-01 5.86613119e-01 5.87327063e-01 5.88041067e-01 5.88755012e-01 5.89469016e-01 5.90182960e-01 5.90896904e-01 5.91610909e-01 5.92324853e-01 5.93038797e-01 5.93752801e-01 5.94466746e-01 5.95180750e-01 5.95894694e-01 5.96608639e-01 5.97322643e-01 5.98036587e-01 5.98750532e-01 5.99464536e-01 6.00178480e-01 6.00892484e-01 6.01606429e-01 6.02320373e-01 6.03034377e-01 6.03748322e-01 6.04462266e-01 6.05176270e-01 6.05890214e-01 6.06604218e-01 6.07318163e-01 6.08032107e-01 6.08746111e-01 6.09460056e-01 6.10174000e-01 6.10888004e-01 6.11601949e-01 6.12315953e-01 6.13029897e-01 6.13743842e-01 6.14457846e-01 6.15171790e-01 6.15885794e-01 6.16599739e-01 6.17313683e-01 6.18027687e-01 6.18741632e-01 6.19455576e-01 6.20169580e-01 6.20883524e-01 6.21597528e-01 6.22311473e-01 6.23025417e-01 6.23739421e-01 6.24453366e-01 6.25167310e-01 6.25881314e-01 6.26595259e-01 6.27309263e-01 6.28023207e-01 6.28737152e-01 6.29451156e-01 6.30165100e-01 6.30879045e-01 6.31593049e-01 6.32306993e-01 6.33020997e-01 6.33734941e-01 6.34448886e-01 6.35162890e-01 6.35876834e-01 6.36590779e-01 6.37304783e-01 6.38018727e-01 6.38732731e-01 6.39446676e-01 6.40160620e-01 6.40874624e-01 6.41588569e-01 6.42302573e-01 6.43016517e-01 6.43730462e-01 6.44444466e-01 6.45158410e-01 6.45872355e-01 6.46586359e-01 6.47300303e-01 6.48014307e-01 6.48728251e-01 6.49442196e-01 6.50156200e-01 6.50870144e-01 6.51584089e-01 6.52298093e-01 6.53012037e-01 6.53726041e-01 6.54439986e-01 6.55153930e-01 6.55867934e-01 6.56581879e-01 6.57295823e-01 6.58009827e-01 6.58723772e-01 6.59437776e-01 6.60151720e-01 6.60865664e-01 6.61579669e-01 6.62293613e-01 6.63007557e-01 6.63721561e-01 6.64435506e-01 6.65149510e-01 6.65863454e-01 6.66577399e-01 6.67291403e-01 6.68005347e-01 6.68719351e-01 6.69433296e-01 6.70147240e-01 6.70861244e-01 6.71575189e-01 6.72289133e-01 6.73003137e-01 6.73717082e-01 6.74431086e-01 6.75145030e-01 6.75858974e-01 6.76572978e-01 6.77286923e-01 6.78000867e-01 6.78714871e-01 6.79428816e-01 6.80142820e-01 6.80856764e-01 6.81570709e-01 6.82284713e-01 6.82998657e-01 6.83712602e-01 6.84426606e-01 6.85140550e-01 6.85854554e-01 6.86568499e-01 6.87282443e-01 6.87996447e-01 6.88710392e-01 6.89424336e-01 6.90138340e-01 6.90852284e-01 6.91566288e-01 6.92280233e-01 6.92994177e-01 6.93708181e-01 6.94422126e-01 6.95136070e-01 6.95850074e-01 6.96564019e-01 6.97278023e-01 6.97991967e-01 6.98705912e-01 6.99419916e-01 7.00133860e-01 7.00847864e-01 7.01561809e-01 7.02275753e-01 7.02989757e-01 7.03703701e-01 7.04417646e-01 7.05131650e-01 7.05845594e-01 7.06559598e-01 7.07273543e-01 7.07987487e-01 7.08701491e-01 7.09415436e-01 7.10129380e-01 7.10843384e-01 7.11557329e-01 7.12271333e-01 7.12985277e-01 7.13699222e-01 7.14413226e-01 7.15127170e-01 7.15841115e-01 7.16555119e-01 7.17269063e-01 7.17983067e-01 7.18697011e-01 7.19410956e-01 7.20124960e-01 7.20838904e-01 7.21552849e-01 7.22266853e-01 7.22980797e-01 7.23694801e-01 7.24408746e-01 7.25122690e-01 7.25836694e-01 7.26550639e-01 7.27264643e-01 7.27978587e-01 7.28692532e-01 7.29406536e-01 7.30120480e-01 7.30834424e-01 7.31548429e-01 7.32262373e-01 7.32976377e-01 7.33690321e-01 7.34404266e-01 7.35118270e-01 7.35832214e-01 7.36546159e-01 7.37260163e-01 7.37974107e-01 7.38688111e-01 7.39402056e-01 7.40116000e-01 7.40830004e-01 7.41543949e-01 7.42257893e-01 7.42971897e-01 7.43685842e-01 7.44399846e-01 7.45113790e-01 7.45827734e-01 7.46541739e-01 7.47255683e-01 7.47969627e-01 7.48683631e-01 7.49397576e-01 7.50111580e-01 7.50825524e-01 7.51539469e-01 7.52253473e-01 7.52967417e-01 7.53681421e-01 7.54395366e-01 7.55109310e-01 7.55823314e-01 7.56537259e-01 7.57251203e-01 7.57965207e-01 7.58679152e-01 7.59393156e-01 7.60107100e-01 7.60821044e-01 7.61535048e-01 7.62248993e-01 7.62962937e-01 7.63676941e-01 7.64390886e-01 7.65104890e-01 7.65818834e-01 7.66532779e-01 7.67246783e-01 7.67960727e-01 7.68674672e-01 7.69388676e-01 7.70102620e-01 7.70816624e-01 7.71530569e-01 7.72244513e-01 7.72958517e-01 7.73672462e-01 7.74386406e-01 7.75100410e-01 7.75814354e-01 7.76528358e-01 7.77242303e-01 7.77956247e-01 7.78670251e-01 7.79384196e-01 7.80098200e-01 7.80812144e-01 7.81526089e-01 7.82240093e-01 7.82954037e-01 7.83667982e-01 7.84381986e-01 7.85095930e-01 7.85809934e-01 7.86523879e-01 7.87237823e-01 7.87951827e-01 7.88665771e-01 7.89379716e-01 7.90093720e-01 7.90807664e-01 7.91521668e-01 7.92235613e-01 7.92949557e-01 7.93663561e-01 7.94377506e-01 7.95091450e-01 7.95805454e-01 7.96519399e-01 7.97233403e-01 7.97947347e-01 7.98661292e-01 7.99375296e-01 8.00089240e-01 8.00803185e-01 8.01517189e-01 8.02231133e-01 8.02945137e-01 8.03659081e-01 8.04373026e-01 8.05087030e-01 8.05800974e-01 8.06514978e-01 8.07228923e-01 8.07942867e-01 8.08656871e-01 8.09370816e-01 8.10084760e-01 8.10798764e-01 8.11512709e-01 8.12226713e-01 8.12940657e-01 8.13654602e-01 8.14368606e-01 8.15082550e-01 8.15796494e-01 8.16510499e-01 8.17224443e-01 8.17938447e-01 8.18652391e-01 8.19366336e-01 8.20080340e-01 8.20794284e-01 8.21508229e-01 8.22222233e-01 8.22936177e-01 8.23650181e-01 8.24364126e-01 8.25078070e-01 8.25792074e-01 8.26506019e-01 8.27219963e-01 8.27933967e-01 8.28647912e-01 8.29361916e-01 8.30075860e-01 8.30789804e-01 8.31503808e-01 8.32217753e-01 8.32931697e-01 8.33645701e-01 8.34359646e-01 8.35073650e-01 8.35787594e-01 8.36501539e-01 8.37215543e-01 8.37929487e-01 8.38643491e-01 8.39357436e-01 8.40071380e-01 8.40785384e-01 8.41499329e-01 8.42213273e-01 8.42927277e-01 8.43641222e-01 8.44355226e-01 8.45069170e-01 8.45783114e-01 8.46497118e-01 8.47211063e-01 8.47925007e-01 8.48639011e-01 8.49352956e-01 8.50066960e-01 8.50780904e-01 8.51494849e-01 8.52208853e-01 8.52922797e-01 8.53636742e-01 8.54350746e-01 8.55064690e-01 8.55778694e-01 8.56492639e-01 8.57206583e-01 8.57920587e-01 8.58634531e-01 8.59348476e-01 8.60062480e-01 8.60776424e-01 8.61490428e-01 8.62204373e-01 8.62918317e-01 8.63632321e-01 8.64346266e-01 8.65060270e-01 8.65774214e-01 8.66488159e-01 8.67202163e-01 8.67916107e-01 8.68630052e-01 8.69344056e-01 8.70058000e-01 8.70772004e-01 8.71485949e-01 8.72199893e-01 8.72913897e-01 8.73627841e-01 8.74341786e-01 8.75055790e-01 8.75769734e-01 8.76483738e-01 8.77197683e-01 8.77911627e-01 8.78625631e-01 8.79339576e-01 8.80053520e-01 8.80767524e-01 8.81481469e-01 8.82195473e-01 8.82909417e-01 8.83623362e-01 8.84337366e-01 8.85051310e-01 8.85765254e-01 8.86479259e-01 8.87193203e-01 8.87907207e-01 8.88621151e-01 8.89335096e-01 8.90049100e-01 8.90763044e-01 8.91477048e-01 8.92190993e-01 8.92904937e-01 8.93618941e-01 8.94332886e-01 8.95046830e-01 8.95760834e-01 8.96474779e-01 8.97188783e-01 8.97902727e-01 8.98616672e-01 8.99330676e-01 9.00044620e-01 9.00758564e-01 9.01472569e-01 9.02186513e-01 9.02900517e-01 9.03614461e-01 9.04328406e-01 9.05042410e-01 9.05756354e-01 9.06470299e-01 9.07184303e-01 9.07898247e-01 9.08612251e-01 9.09326196e-01 9.10040140e-01 9.10754144e-01 9.11468089e-01 9.12182033e-01 9.12896037e-01 9.13609982e-01 9.14323986e-01 9.15037930e-01 9.15751874e-01 9.16465878e-01 9.17179823e-01 9.17893827e-01 9.18607771e-01 9.19321716e-01 9.20035720e-01 9.20749664e-01 9.21463609e-01 9.22177613e-01 9.22891557e-01 9.23605561e-01 9.24319506e-01 9.25033450e-01 9.25747454e-01 9.26461399e-01 9.27175343e-01 9.27889347e-01 9.28603292e-01 9.29317296e-01 9.30031240e-01 9.30745184e-01 9.31459188e-01 9.32173133e-01 9.32887077e-01 9.33601081e-01 9.34315026e-01 9.35029030e-01 9.35742974e-01 9.36456919e-01 9.37170923e-01 9.37884867e-01 9.38598812e-01 9.39312816e-01 9.40026760e-01 9.40740764e-01 9.41454709e-01 9.42168653e-01 9.42882657e-01 9.43596601e-01 9.44310546e-01 9.45024550e-01 9.45738494e-01 9.46452498e-01 9.47166443e-01 9.47880387e-01 9.48594391e-01 9.49308336e-01 9.50022340e-01 9.50736284e-01 9.51450229e-01 9.52164233e-01 9.52878177e-01 9.53592122e-01 9.54306126e-01 9.55020070e-01 9.55734074e-01 9.56448019e-01 9.57161963e-01 9.57875967e-01 9.58589911e-01 9.59303856e-01 9.60017860e-01 9.60731804e-01 9.61445808e-01 9.62159753e-01 9.62873697e-01 9.63587701e-01 9.64301646e-01 9.65015590e-01 9.65729594e-01 9.66443539e-01 9.67157543e-01 9.67871487e-01 9.68585432e-01 9.69299436e-01 9.70013380e-01 9.70727324e-01 9.71441329e-01 9.72155273e-01 9.72869277e-01 9.73583221e-01 9.74297166e-01 9.75011170e-01 9.75725114e-01 9.76439118e-01 9.77153063e-01 9.77867007e-01 9.78581011e-01 9.79294956e-01 9.80008900e-01 9.80722904e-01 9.81436849e-01 9.82150853e-01 9.82864797e-01 9.83578742e-01 9.84292746e-01 9.85006690e-01 9.85720634e-01 9.86434639e-01 9.87148583e-01 9.87862587e-01 9.88576531e-01 9.89290476e-01 9.90004480e-01 9.90718424e-01 9.91432369e-01 9.92146373e-01 9.92860317e-01 9.93574321e-01 9.94288266e-01 9.95002210e-01 9.95716214e-01 9.96430159e-01 9.97144103e-01 9.97858107e-01 9.98572052e-01 9.99286056e-01 1.00000000e+00 
            </Histogram>
            <HistogramBinning NBins="1401">
              1.50958627e-01 1.51058629e-01 2.00880870e-01 2.26745293e-01 2.44405210e-01 2.56962270e-01 2.71058738e-01 2.82345474e-01 2.92675525e-01 2.98515022e-01 3.07138026e-01 3.12919378e-01 3.18181872e-01 3.26424003e-01 3.34394753e-01 3.40356261e-01 3.47324699e-01 3.52860868e-01 3.60746086e-01 3.64461213e-01 3.69981438e-01 3.75184625e-01 3.80978525e-01 3.85055125e-01 3.89937907e-01 3.94136518e-01 3.98711443e-01 4.02439058e-01 4.06465530e-01 4.11147624e-01 4.14017737e-01 4.17941540e-01 4.26306844e-01 4.28805262e-01 4.31750685e-01 4.35582101e-01 4.38436300e-01 4.41050977e-01 4.43100154e-01 4.46882546e-01 4.49832469e-01 4.51495051e-01 4.56426859e-01 4.60402012e-01 4.66797948e-01 4.70394462e-01 4.72631782e-01 4.74383265e-01 4.79063094e-01 4.80794102e-01 4.83888894e-01 4.86728221e-01 4.89472955e-01 4.92295206e-01 4.94852901e-01 4.97484744e-01 4.99692380e-01 5.01697063e-01 5.02633214e-01 5.03788352e-01 5.06811321e-01 5.10316610e-01 5.14038563e-01 5.16489089e-01 5.20203054e-01 5.21921515e-01 5.23552120e-01 5.25004864e-01 5.26081324e-01 5.28258204e-01 5.29815853e-01 5.31657457e-01 5.33053160e-01 5.35836637e-01 5.38387477e-01 5.41800439e-01 5.43684244e-01 5.46537280e-01 5.48541963e-01 5.53083777e-01 5.55679142e-01 5.57290375e-01 5.59485435e-01 5.61622381e-01 5.64295292e-01 5.65265656e-01 5.67748129e-01 5.69714010e-01 5.71242034e-01 5.73475897e-01 5.75351655e-01 5.76021016e-01 5.77395141e-01 5.78658581e-01 5.80379307e-01 5.82129657e-01 5.84305346e-01 5.85929155e-01 5.87883651e-01 5.89769721e-01 5.90689898e-01 5.92349052e-01 5.94808757e-01 5.97223878e-01 5.99478304e-01 6.01149976e-01 6.02947116e-01 6.03739619e-01 6.05066895e-01 6.06013358e-01 6.07517421e-01 6.09686315e-01 6.10932648e-01 6.12120867e-01 6.13566756e-01 6.15708232e-01 6.16328597e-01 6.17929578e-01 6.19833887e-01 6.22661829e-01 6.23690367e-01 6.24856889e-01 6.25972152e-01 6.26952767e-01 6.29233420e-01 6.30664468e-01 6.31748915e-01 6.33022666e-01 6.33960009e-01 6.35838091e-01 6.37312472e-01 6.39018357e-01 6.40939772e-01 6.41709507e-01 6.43229544e-01 6.44160032e-01 6.45462275e-01 6.46642506e-01 6.47789598e-01 6.48335814e-01 6.49809122e-01 6.51361048e-01 6.52201474e-01 6.53011084e-01 6.54137731e-01 6.55266583e-01 6.56331658e-01 6.57538116e-01 6.58541560e-01 6.59446955e-01 6.60770893e-01 6.61566794e-01 6.62422001e-01 6.63318336e-01 6.64224863e-01 6.66399419e-01 6.67635500e-01 6.68635547e-01 6.69423521e-01 6.70513630e-01 6.71647131e-01 6.72508061e-01 6.73684835e-01 6.74444258e-01 6.75471663e-01 6.76038444e-01 6.76743150e-01 6.78030550e-01 6.78595006e-01 6.79644048e-01 6.80849373e-01 6.81738794e-01 6.82446897e-01 6.83083236e-01 6.83710396e-01 6.84505165e-01 6.85246408e-01 6.85962498e-01 6.86723053e-01 6.87560081e-01 6.88176990e-01 6.88752830e-01 6.89783692e-01 6.91204488e-01 6.91693664e-01 6.92447424e-01 6.93707466e-01 6.94297016e-01 6.95254862e-01 6.96001768e-01 6.97005272e-01 6.97857022e-01 6.98485374e-01 6.99339449e-01 7.00686157e-01 7.01076090e-01 7.01935947e-01 7.02644050e-01 7.03655481e-01 7.04092205e-01 7.04658985e-01 7.05438912e-01 7.05993116e-01 7.06288457e-01 7.06970334e-01 7.07691073e-01 7.08630681e-01 7.09085643e-01 7.10292101e-01 7.11179256e-01 7.12222636e-01 7.12901056e-01 7.13606954e-01 7.14286566e-01 7.15004981e-01 7.16303766e-01 7.16807783e-01 7.17512488e-01 7.17995942e-01 7.18551338e-01 7.20149994e-01 7.20666587e-01 7.21013248e-01 7.21575379e-01 7.22770452e-01 7.23162711e-01 7.23918736e-01 7.24407911e-01 7.24642813e-01 7.25140035e-01 7.25499213e-01 7.26150334e-01 7.26598442e-01 7.27210820e-01 7.28263319e-01 7.28679538e-01 7.29191482e-01 7.29469776e-01 7.30110645e-01 7.30681837e-01 7.31257737e-01 7.31990933e-01 7.32775509e-01 7.33211100e-01 7.33789206e-01 7.34271586e-01 7.34895289e-01 7.35683203e-01 7.36484945e-01 7.37075567e-01 7.37788260e-01 7.38311708e-01 7.39079118e-01 7.39742756e-01 7.40328848e-01 7.40960658e-01 7.41371095e-01 7.42031336e-01 7.42693901e-01 7.43215024e-01 7.43935645e-01 7.44367838e-01 7.44721353e-01 7.45484233e-01 7.46231079e-01 7.46550381e-01 7.46996224e-01 7.47801304e-01 7.48292804e-01 7.48911977e-01 7.49323606e-01 7.49954224e-01 7.50234663e-01 7.50788927e-01 7.51548350e-01 7.52045572e-01 7.52520978e-01 7.53253102e-01 7.53959000e-01 7.54988611e-01 7.55255461e-01 7.55837023e-01 7.56477833e-01 7.57190526e-01 7.57684350e-01 7.58158684e-01 7.58745968e-01 7.59114265e-01 7.59645641e-01 7.60076702e-01 7.60999143e-01 7.61538565e-01 7.61965036e-01 7.62844205e-01 7.63570607e-01 7.64327705e-01 7.64707506e-01 7.64945745e-01 7.65396237e-01 7.66140878e-01 7.66700685e-01 7.67223060e-01 7.67566264e-01 7.68244743e-01 7.68554926e-01 7.69057751e-01 7.69582272e-01 7.70101130e-01 7.70925581e-01 7.71384001e-01 7.71822989e-01 7.72315562e-01 7.72695303e-01 7.73063660e-01 7.73533463e-01 7.73778617e-01 7.74177670e-01 7.74619043e-01 7.75023818e-01 7.75633872e-01 7.76171029e-01 7.77019322e-01 7.77550697e-01 7.77968109e-01 7.78337538e-01 7.79016018e-01 7.79587328e-01 7.80329704e-01 7.80899823e-01 7.81496167e-01 7.82073259e-01 7.82521367e-01 7.83018470e-01 7.83644497e-01 7.84334421e-01 7.84690261e-01 7.85207868e-01 7.85417736e-01 7.85912633e-01 7.86532938e-01 7.86903560e-01 7.87522733e-01 7.87971973e-01 7.88211524e-01 7.88440645e-01 7.88887680e-01 7.89512575e-01 7.89859235e-01 7.90685892e-01 7.91162550e-01 7.91413486e-01 7.91649520e-01 7.92077124e-01 7.92528689e-01 7.92914093e-01 7.93414712e-01 7.93742001e-01 7.94135392e-01 7.94629097e-01 7.94989467e-01 7.95322418e-01 7.95582473e-01 7.96158314e-01 7.96744406e-01 7.97128677e-01 7.97426283e-01 7.97773004e-01 7.98210859e-01 7.98509598e-01 7.98892736e-01 7.99333990e-01 7.99874485e-01 8.00556421e-01 8.00801575e-01 8.01147103e-01 8.01337540e-01 8.01785707e-01 8.02033126e-01 8.02378595e-01 8.02766323e-01 8.03041160e-01 8.03345561e-01 8.03636432e-01 8.04143786e-01 8.04511011e-01 8.04770947e-01 8.05137038e-01 8.05484891e-01 8.05682123e-01 8.06221485e-01 8.06505382e-01 8.06874871e-01 8.07141662e-01 8.07682216e-01 8.08211327e-01 8.08479249e-01 8.08710754e-01 8.09058487e-01 8.09337914e-01 8.09889853e-01 8.10292304e-01 8.10906947e-01 8.11249018e-01 8.11586618e-01 8.12052965e-01 8.12494218e-01 8.12920809e-01 8.13175023e-01 8.13356400e-01 8.13660800e-01 8.13907087e-01 8.14368963e-01 8.14624429e-01 8.14911783e-01 8.15183103e-01 8.15462530e-01 8.16194534e-01 8.16619873e-01 8.16898108e-01 8.17215145e-01 8.17393064e-01 8.17559540e-01 8.17867458e-01 8.18087459e-01 8.18507135e-01 8.18809271e-01 8.19201589e-01 8.19600701e-01 8.19785416e-01 8.20140004e-01 8.20390940e-01 8.20743263e-01 8.21037471e-01 8.21543753e-01 8.21784377e-01 8.21973681e-01 8.22436631e-01 8.22939456e-01 8.23246241e-01 8.23559821e-01 8.23964655e-01 8.24171007e-01 8.24419618e-01 8.24790180e-01 8.25155139e-01 8.25432241e-01 8.25797081e-01 8.25984120e-01 8.26406002e-01 8.26676309e-01 8.27160895e-01 8.27428818e-01 8.27752709e-01 8.28007042e-01 8.28301191e-01 8.28690052e-01 8.29024136e-01 8.29200923e-01 8.29621732e-01 8.29893053e-01 8.30232859e-01 8.30473542e-01 8.30641091e-01 8.31003785e-01 8.31224918e-01 8.31756294e-01 8.32120061e-01 8.32375467e-01 8.32894325e-01 8.33306015e-01 8.33746135e-01 8.34120214e-01 8.34438324e-01 8.34692597e-01 8.34969699e-01 8.35579813e-01 8.35881948e-01 8.36152256e-01 8.36507976e-01 8.36665392e-01 8.37124884e-01 8.37306201e-01 8.37640285e-01 8.37892294e-01 8.38186562e-01 8.38410020e-01 8.38624418e-01 8.38809073e-01 8.39144409e-01 8.39346230e-01 8.39805782e-01 8.40228856e-01 8.40450048e-01 8.40619981e-01 8.40903878e-01 8.41184437e-01 8.41342926e-01 8.41515124e-01 8.41829777e-01 8.42042983e-01 8.42267632e-01 8.42478633e-01 8.42891395e-01 8.43129814e-01 8.43384027e-01 8.43844771e-01 8.44217598e-01 8.44486713e-01 8.44791174e-01 8.45036387e-01 8.45275760e-01 8.45636129e-01 8.46059203e-01 8.46282721e-01 8.46591711e-01 8.47038746e-01 8.47232580e-01 8.47479999e-01 8.47854078e-01 8.48124266e-01 8.48354638e-01 8.48639667e-01 8.48880291e-01 8.49152863e-01 8.49334180e-01 8.49671721e-01 8.49745750e-01 8.50099325e-01 8.50361526e-01 8.50646615e-01 8.50821137e-01 8.51122141e-01 8.51399243e-01 8.51647794e-01 8.51887345e-01 8.51980865e-01 8.52167785e-01 8.52451742e-01 8.52767646e-01 8.53203237e-01 8.53495121e-01 8.53864610e-01 8.54148507e-01 8.54356050e-01 8.54530513e-01 8.54797304e-01 8.54977489e-01 8.55312824e-01 8.55492949e-01 8.55772316e-01 8.55902314e-01 8.56150925e-01 8.56469095e-01 8.56790662e-01 8.56969655e-01 8.57184052e-01 8.57603610e-01 8.57913792e-01 8.58049512e-01 8.58504534e-01 8.58827174e-01 8.59096348e-01 8.59256029e-01 8.59608352e-01 8.59872878e-01 8.60208094e-01 8.60571861e-01 8.60710979e-01 8.60862672e-01 8.61065626e-01 8.61262858e-01 8.61680210e-01 8.61872971e-01 8.62261772e-01 8.62556040e-01 8.62814844e-01 8.63174081e-01 8.63423765e-01 8.63754451e-01 8.63917530e-01 8.64195764e-01 8.64567518e-01 8.64852607e-01 8.65070343e-01 8.65323544e-01 8.65472913e-01 8.65747750e-01 8.65984917e-01 8.66449058e-01 8.66776347e-01 8.67020249e-01 8.67240369e-01 8.67564261e-01 8.67713630e-01 8.67986143e-01 8.68181169e-01 8.68423998e-01 8.68673742e-01 8.69059145e-01 8.69421780e-01 8.69613349e-01 8.69890451e-01 8.70139062e-01 8.70407045e-01 8.70612264e-01 8.70876789e-01 8.71272504e-01 8.71734381e-01 8.72141421e-01 8.72506320e-01 8.72855246e-01 8.73013735e-01 8.73183668e-01 8.73341024e-01 8.73567939e-01 8.73765230e-01 8.73959064e-01 8.74380946e-01 8.74505281e-01 8.74768674e-01 8.74951124e-01 8.75140429e-01 8.75369608e-01 8.75680983e-01 8.75973940e-01 8.76208842e-01 8.76644492e-01 8.76948953e-01 8.77343476e-01 8.77573848e-01 8.77772212e-01 8.77962649e-01 8.78236353e-01 8.78546536e-01 8.78933072e-01 8.79206717e-01 8.79488468e-01 8.79754126e-01 8.80133808e-01 8.80349398e-01 8.80503297e-01 8.80730152e-01 8.80962789e-01 8.81314039e-01 8.81612778e-01 8.81925285e-01 8.82450938e-01 8.82604897e-01 8.82847726e-01 8.82946968e-01 8.83284450e-01 8.83625388e-01 8.83862615e-01 8.84171665e-01 8.84445369e-01 8.84667635e-01 8.84960711e-01 8.85145426e-01 8.85446548e-01 8.85800004e-01 8.86138678e-01 8.86378109e-01 8.86656344e-01 8.86967719e-01 8.87394190e-01 8.87573183e-01 8.87795568e-01 8.88039529e-01 8.88396502e-01 8.88589203e-01 8.88763726e-01 8.88951778e-01 8.89145613e-01 8.89315546e-01 8.89462650e-01 8.89641702e-01 8.89862895e-01 8.90090942e-01 8.90259743e-01 8.90447915e-01 8.90638351e-01 8.91051173e-01 8.91333878e-01 8.91636133e-01 8.91825318e-01 8.91999841e-01 8.92363608e-01 8.92546058e-01 8.92726243e-01 8.92953098e-01 8.93177807e-01 8.93350005e-01 8.93616796e-01 8.93851697e-01 8.94109428e-01 8.94321501e-01 8.94687533e-01 8.94917905e-01 8.95112872e-01 8.95361483e-01 8.95703554e-01 8.96034241e-01 8.96460712e-01 8.96795988e-01 8.96978438e-01 8.97219002e-01 8.97431076e-01 8.97647798e-01 8.97784650e-01 8.98043454e-01 8.98181438e-01 8.98520112e-01 8.98830295e-01 8.99060667e-01 8.99398148e-01 8.99628520e-01 8.99907827e-01 9.00156498e-01 9.00457501e-01 9.00723219e-01 9.00920451e-01 9.01056170e-01 9.01300192e-01 9.01694715e-01 9.02053952e-01 9.02253509e-01 9.02475893e-01 9.02609229e-01 9.02970731e-01 9.03214753e-01 9.03497577e-01 9.03890967e-01 9.04284418e-01 9.04583156e-01 9.04853344e-01 9.05259311e-01 9.05515850e-01 9.05698359e-01 9.05924141e-01 9.06109989e-01 9.06270742e-01 9.06561553e-01 9.06726897e-01 9.06908154e-01 9.07334626e-01 9.07666564e-01 9.07923102e-01 9.08165991e-01 9.08351839e-01 9.08601522e-01 9.08764660e-01 9.08984721e-01 9.09357607e-01 9.09544587e-01 9.09803391e-01 9.10023510e-01 9.10261869e-01 9.10499036e-01 9.10637021e-01 9.10809219e-01 9.10926640e-01 9.11150157e-01 9.11350846e-01 9.11550403e-01 9.11658704e-01 9.11947191e-01 9.12060142e-01 9.12363410e-01 9.12744284e-01 9.12970066e-01 9.13098931e-01 9.13420558e-01 9.13727224e-01 9.13980365e-01 9.14162815e-01 9.14426267e-01 9.14636075e-01 9.14821923e-01 9.14969027e-01 9.15200531e-01 9.15486753e-01 9.15776372e-01 9.16142344e-01 9.16362464e-01 9.16650951e-01 9.17055786e-01 9.17306662e-01 9.17703450e-01 9.17939484e-01 9.18176770e-01 9.18394506e-01 9.18595195e-01 9.18834686e-01 9.19004560e-01 9.19214368e-01 9.19356942e-01 9.19610023e-01 9.19921398e-01 9.20091331e-01 9.20380950e-01 9.20571387e-01 9.20744658e-01 9.21021760e-01 9.21244144e-01 9.21564519e-01 9.21769798e-01 9.22040105e-01 9.22190607e-01 9.22386706e-01 9.22628462e-01 9.22792733e-01 9.23160970e-01 9.23338890e-01 9.23587441e-01 9.23799515e-01 9.24132586e-01 9.24351454e-01 9.24546421e-01 9.24774528e-01 9.24868047e-01 9.25121248e-01 9.25388038e-01 9.25547659e-01 9.25785959e-01 9.26026583e-01 9.26312864e-01 9.26848769e-01 9.27041471e-01 9.27284360e-01 9.27504480e-01 9.27851081e-01 9.28170323e-01 9.28479373e-01 9.28849995e-01 9.29122567e-01 9.29357409e-01 9.29663002e-01 9.29959476e-01 9.30254817e-01 9.30486321e-01 9.30701792e-01 9.30993795e-01 9.31146562e-01 9.31663156e-01 9.31980073e-01 9.32218492e-01 9.32462513e-01 9.32697415e-01 9.33022320e-01 9.33463693e-01 9.33746397e-01 9.34077084e-01 9.34357643e-01 9.34720278e-01 9.34929013e-01 9.35192347e-01 9.35464919e-01 9.35862839e-01 9.36174214e-01 9.36444402e-01 9.36661065e-01 9.36995208e-01 9.37168479e-01 9.37450230e-01 9.37665701e-01 9.37980354e-01 9.38183367e-01 9.38514113e-01 9.38676000e-01 9.38997567e-01 9.39278066e-01 9.39559758e-01 9.39837992e-01 9.40056920e-01 9.40378487e-01 9.40751374e-01 9.41231430e-01 9.41617966e-01 9.41969156e-01 9.42480028e-01 9.42785621e-01 9.43042219e-01 9.43304479e-01 9.43636298e-01 9.44099307e-01 9.44422007e-01 9.44767475e-01 9.44990993e-01 9.45472240e-01 9.45634127e-01 9.46085691e-01 9.46385622e-01 9.46727693e-01 9.47166741e-01 9.47676420e-01 9.48023140e-01 9.48354959e-01 9.48927402e-01 9.49279726e-01 9.49531674e-01 9.49954748e-01 9.50173736e-01 9.50423419e-01 9.50807691e-01 9.51210201e-01 9.51520383e-01 9.51891005e-01 9.52207983e-01 9.52393830e-01 9.52588916e-01 9.52843189e-01 9.53108907e-01 9.53367710e-01 9.53640282e-01 9.53868270e-01 9.54110086e-01 9.54671025e-01 9.55005169e-01 9.55643773e-01 9.55988109e-01 9.56475019e-01 9.56877589e-01 9.57111359e-01 9.57507014e-01 9.57922041e-01 9.58207190e-01 9.58461463e-01 9.58801270e-01 9.59232271e-01 9.59413588e-01 9.59783077e-01 9.60216403e-01 9.60694194e-01 9.60983813e-01 9.61356699e-01 9.61831093e-01 9.62189078e-01 9.62710202e-01 9.63159442e-01 9.63547230e-01 9.63828802e-01 9.64086592e-01 9.64445710e-01 9.64777648e-01 9.65121984e-01 9.65407073e-01 9.65701222e-01 9.66361463e-01 9.66710389e-01 9.67049062e-01 9.67304528e-01 9.67843890e-01 9.68268096e-01 9.68515515e-01 9.68968272e-01 9.69426632e-01 9.69977379e-01 9.70343471e-01 9.70693529e-01 9.71099436e-01 9.71578419e-01 9.71931875e-01 9.72316146e-01 9.72744942e-01 9.73327577e-01 9.73749518e-01 9.74034607e-01 9.74618435e-01 9.75081384e-01 9.75378990e-01 9.75656092e-01 9.76027846e-01 9.76586640e-01 9.77051795e-01 9.77408767e-01 9.77941275e-01 9.78441894e-01 9.79059935e-01 9.79674578e-01 9.80348468e-01 9.81217384e-01 9.82017875e-01 9.82429504e-01 9.83039558e-01 9.83641684e-01 9.84203875e-01 9.84807134e-01 9.85451341e-01 9.85852718e-01 9.86453652e-01 9.86850560e-01 9.87290680e-01 9.87639606e-01 9.87991929e-01 9.88762736e-01 9.89389956e-01 9.89741147e-01 9.90515411e-01 9.91109550e-01 9.91686523e-01 9.92473304e-01 9.93099391e-01 9.93872523e-01 9.94619429e-01 9.95360613e-01 9.95879412e-01 9.96741533e-01 9.97248948e-01 9.97832775e-01 9.98326600e-01 9.98709738e-01 9.99124825e-01 9.99628782e-01 1.00029242e+00 1.00091171e+00 1.00140536e+00 1.00209415e+00 1.00254905e+00 1.00317860e+00 1.00373387e+00 1.00407827e+00 1.00491297e+00 1.00564051e+00 1.00609207e+00 1.00664282e+00 1.00753677e+00 1.00804305e+00 1.00838292e+00 1.00896907e+00 1.00987554e+00 1.01044345e+00 1.01124728e+00 1.01206386e+00 1.01268530e+00 1.01310027e+00 1.01327479e+00 1.01423609e+00 1.01455653e+00 1.01517916e+00 1.01599789e+00 1.01741076e+00 1.01805043e+00 1.01903105e+00 1.02003562e+00 1.02056253e+00 1.02182031e+00 1.02247715e+00 1.02292860e+00 1.02383971e+00 1.02460599e+00 1.02556157e+00 1.02605653e+00 1.02656615e+00 1.02724934e+00 1.02833247e+00 1.02922893e+00 1.02996433e+00 1.03076029e+00 1.03127110e+00 1.03199303e+00 1.03258586e+00 1.03321874e+00 1.03387105e+00 1.03439331e+00 1.03517091e+00 1.03621662e+00 1.03676975e+00 1.03744590e+00 1.03823602e+00 1.03931940e+00 1.04046655e+00 1.04121578e+00 1.04234350e+00 1.04317021e+00 1.04457164e+00 1.04577243e+00 1.04683292e+00 1.04732776e+00 1.04807580e+00 1.04933929e+00 1.04997551e+00 1.05075216e+00 1.05198932e+00 1.05311942e+00 1.05443192e+00 1.05552661e+00 1.05600441e+00 1.05679464e+00 1.05833292e+00 1.05950511e+00 1.06064534e+00 1.06122351e+00 1.06189287e+00 1.06283486e+00 1.06399107e+00 1.06526935e+00 1.06617367e+00 1.06732416e+00 1.06791031e+00 1.06895590e+00 1.07040417e+00 1.07128441e+00 1.07289803e+00 1.07374179e+00 1.07518435e+00 1.07664168e+00 1.07773292e+00 1.07948899e+00 1.08077180e+00 1.08252108e+00 1.08327365e+00 1.08484387e+00 1.08589971e+00 1.08837306e+00 1.08925343e+00 1.09023631e+00 1.09194791e+00 1.09306550e+00 1.09512258e+00 1.09631526e+00 1.09779882e+00 1.09858346e+00 1.09948421e+00 1.10119689e+00 1.10248780e+00 1.10350609e+00 1.10488129e+00 1.10610485e+00 1.10681403e+00 1.10919619e+00 1.11068654e+00 1.11162269e+00 1.11264217e+00 1.11417139e+00 1.11571193e+00 1.11733007e+00 1.11841333e+00 1.11975098e+00 1.12212038e+00 1.12326980e+00 1.12545812e+00 1.12698269e+00 1.12794626e+00 1.12974787e+00 1.13127828e+00 1.13248467e+00 1.13448370e+00 1.13639247e+00 1.13846445e+00 1.13989103e+00 1.14120686e+00 1.14364719e+00 1.14511812e+00 1.14606452e+00 1.14832246e+00 1.15042055e+00 1.15198278e+00 1.15352213e+00 1.15607655e+00 1.15703440e+00 1.15904129e+00 1.16070616e+00 1.16427529e+00 1.16538131e+00 1.16746819e+00 1.16900754e+00 1.17034173e+00 1.17207503e+00 1.17350042e+00 1.17546165e+00 1.17690980e+00 1.17840374e+00 1.18066144e+00 1.18237197e+00 1.18428767e+00 1.18696737e+00 1.18908834e+00 1.19083297e+00 1.19266891e+00 1.19458461e+00 1.19610119e+00 1.19842744e+00 1.20042300e+00 1.20246410e+00 1.20408344e+00 1.20615876e+00 1.20822275e+00 1.21097076e+00 1.21233916e+00 1.21548641e+00 1.21758461e+00 1.21903276e+00 1.22060645e+00 1.22311509e+00 1.22636497e+00 1.22796130e+00 1.23073232e+00 1.23427868e+00 1.23614872e+00 1.23959255e+00 1.24246609e+00 1.24353802e+00 1.24549925e+00 1.24776852e+00 1.25175953e+00 1.25535154e+00 1.25906897e+00 1.26303720e+00 1.26472485e+00 1.26666343e+00 1.26958251e+00 1.27422369e+00 1.27569461e+00 1.27966285e+00 1.28219438e+00 1.28414428e+00 1.28746247e+00 1.29003966e+00 1.29452109e+00 1.30000591e+00 1.30163658e+00 1.30323303e+00 1.30681348e+00 1.31126070e+00 1.31318784e+00 1.31753242e+00 1.32072520e+00 1.32408917e+00 1.32835388e+00 1.33145559e+00 1.33486497e+00 1.33682644e+00 1.33973420e+00 1.34260774e+00 1.34661031e+00 1.34923291e+00 1.35376000e+00 1.35593796e+00 1.35952985e+00 1.36173069e+00 1.36739802e+00 1.37160563e+00 1.37491262e+00 1.37683964e+00 1.38003266e+00 1.38436580e+00 1.38918924e+00 1.39435482e+00 1.39888191e+00 1.40543866e+00 1.40791309e+00 1.41308999e+00 1.41703546e+00 1.42265725e+00 1.42648864e+00 1.43138063e+00 1.43701363e+00 1.44065118e+00 1.44444847e+00 1.44916928e+00 1.45190609e+00 1.45734537e+00 1.46481431e+00 1.46927297e+00 1.47312713e+00 1.47993481e+00 1.48470128e+00 1.48908007e+00 1.49489558e+00 1.49874997e+00 1.50253570e+00 1.50781536e+00 1.51187479e+00 1.51767886e+00 1.52466905e+00 1.52756536e+00 1.53492033e+00 1.53908241e+00 1.54470420e+00 1.55486429e+00 1.55885541e+00 1.56432879e+00 1.56987083e+00 1.57705462e+00 1.58260787e+00 1.58924448e+00 1.59572148e+00 1.60217559e+00 1.60979283e+00 1.61763811e+00 1.62589395e+00 1.62985086e+00 1.63478839e+00 1.63858569e+00 1.64289594e+00 1.64806151e+00 1.65621471e+00 1.66525733e+00 1.67489290e+00 1.68180323e+00 1.68979681e+00 1.69873679e+00 1.71072125e+00 1.71604669e+00 1.72302532e+00 1.73056269e+00 1.74028945e+00 1.74864793e+00 1.75798702e+00 1.76718938e+00 1.77928793e+00 1.78903759e+00 1.80083966e+00 1.81528735e+00 1.81954074e+00 1.82730615e+00 1.83966708e+00 1.84731865e+00 1.86067164e+00 1.87311244e+00 1.88449252e+00 1.89600968e+00 1.91063976e+00 1.92304635e+00 1.93138194e+00 1.93939829e+00 1.94645679e+00 1.95693624e+00 1.96652615e+00 1.97335660e+00 1.99022174e+00 1.99894500e+00 2.00942445e+00 2.01726985e+00 2.03285766e+00 2.04993963e+00 2.06131983e+00 2.07703328e+00 2.09207392e+00 2.10609961e+00 2.12120867e+00 2.14012623e+00 2.15805197e+00 2.18505430e+00 2.20093894e+00 2.21137261e+00 2.23430419e+00 2.25618672e+00 2.26792049e+00 2.28537846e+00 2.31304240e+00 2.33806062e+00 2.35405922e+00 2.37474442e+00 2.40025306e+00 2.41928458e+00 2.43681121e+00 2.45604801e+00 2.48116899e+00 2.50188851e+00 2.51698613e+00 2.55187941e+00 2.57776451e+00 2.60138035e+00 2.63696933e+00 2.67642379e+00 2.71725821e+00 2.74432898e+00 2.77411366e+00 2.79872155e+00 2.83800507e+00 2.88910222e+00 2.91953707e+00 2.98854828e+00 3.04044366e+00 3.06920218e+00 3.12590957e+00 3.17781639e+00 3.25239253e+00 3.34375358e+00 3.41357446e+00 3.45419216e+00 3.51413798e+00 3.59505415e+00 3.64855766e+00 3.72752357e+00 3.88278770e+00 4.01184750e+00 4.10511303e+00 4.24094629e+00 4.33830547e+00 4.42498064e+00 4.51448298e+00 4.64890242e+00 4.78999233e+00 5.01807642e+00 5.31975555e+00 5.76301575e+00 6.45202255e+00 7.17777061e+00 8.17103386e+00 1.61319084e+01 
            </HistogramBinning>
          </PDF>
        </CumulativePDF_cls2>
      </Variable>
      <Variable VarIndex="1">
        <CumulativePDF_cls0>
          <PDF Name="GaussTransform var1 cls0" MinNSmooth="0" MaxNSmooth="0" InterpolMethod="1" KDE_type="0" KDE_iter="1" KDE_border="1" KDE_finefactor="0.0000000000000000e+00">
            <Histogram Name="Cumulative_Var1_cls0_original" NBins="701" XMin="4.1923341155052185e-01" XMax="7.3919677734375000e+00" HasEquidistantBins="0">
